9996 16
. 0.013557738 0.029496241 0.021516005 -0.0014085257 -0.012725339 0.039314482 -0.015089174 -0.027619865 0.0059929155 -0.016595041 0.04948586 0.013004291 0.022304036 0.038822763 0.04023366 0.012276967
영화 0.00896851 0.021897577 0.14818586 0.014745012 -0.03231454 0.051836994 -0.06349228 -0.07118246 0.01557295 -0.05381282 0.06346736 0.04043664 0.056443073 0.03592157 0.0318842 -0.101135515
다 0.011612233 -0.00888994 0.08293139 0.0035809916 -0.009759695 0.04812227 -0.04738919 -0.032350786 0.0050095515 -0.02628481 0.02746535 0.032284413 0.12770243 0.05007544 0.03822078 -0.14389995
고 -0.035177603 0.005129454 0.039544486 -0.013135929 0.04605556 0.0007856085 -0.021554524 -0.05236087 0.04076795 -0.061532304 0.01271818 -0.033808034 -0.0055100853 -0.001843073 0.09441854 0.13204844
하 0.057983443 -0.07300951 0.05695758 0.059591364 -0.055319134 -0.022906862 0.020083813 -0.023187438 -0.06050175 0.03192808 0.06601402 0.049856372 -0.012390226 0.035112668 0.016932549 0.07141703
을 -0.019599687 0.054375533 0.009001258 0.048503276 -0.07473391 -0.024233941 0.010366032 0.04732409 -0.042656552 0.042384468 0.010899682 0.016740976 -0.021410324 -0.01716747 0.039438337 0.064131565
보 -0.0013607133 0.0008300534 -0.010862702 -0.010499438 0.058504164 -0.053448137 -0.03305526 0.02381602 0.07023208 -0.036472917 -0.023413979 -0.06560319 0.028248629 -0.05813761 -0.037848298 0.0711439
.. 0.014519789 -0.028325882 0.011329255 0.041463543 0.018643523 -0.014139633 -0.01981521 -0.003866366 0.04820522 0.051392827 0.040780332 0.04255932 -0.04932044 0.054562803 -0.04499924 0.026790923
게 -0.00039559382 0.08866038 0.08984953 -0.07759426 0.056295082 -0.037153777 0.050665714 0.02618082 0.013438146 -0.05627713 -0.033863273 -0.02099086 -0.029592637 -0.04938854 0.0009917761 0.107002884
, 0.0026413072 0.004216545 0.087399326 0.017457128 0.03431471 0.04396706 0.0071754563 0.0078062997 -0.019455248 0.015925804 -0.016267708 0.01960481 0.010424227 -0.031106979 0.023616582 0.03311641
! -0.06572413 0.028360479 0.07519093 -0.102666125 0.12767057 0.0118261995 0.04899331 -0.04293967 -0.010520461 -0.08939783 -0.045018386 0.01981146 0.009895954 -0.036273375 0.09189881 -0.15548967
지 -0.030323857 0.027937045 -0.080679975 0.010440172 -0.032012716 -0.010923801 0.017284026 0.097222686 -0.025367329 -0.02591559 -0.015243607 0.12043661 -0.022061212 -0.005575474 -0.09140296 0.08288502
있 -0.05075998 0.052707408 -0.01558126 -0.11201519 0.119607456 -0.04880709 0.054895416 -0.01998635 0.030594638 -0.062203787 -0.11033786 0.06183022 -0.02249234 -0.018134547 0.003493703 -0.04712505
없 0.13188168 -0.13086405 -0.044347692 0.17923155 -0.25411582 0.083675526 -0.059673153 0.14525828 -0.27792168 0.12348787 0.16795516 0.081430264 -0.21684949 0.10100263 -0.29640922 0.23737969
? 0.04121493 -0.1270146 -0.09171547 0.08508624 -0.06193597 0.07720286 -0.07300614 0.067822695 -0.028177615 0.02974797 0.06373823 0.06992685 -0.0429731 0.03564128 -0.0928544 0.033845365
좋 -0.12079971 0.09196911 0.18244146 -0.15836821 0.2370417 -0.09861697 0.12805043 -0.10910749 0.12772603 -0.19693863 -0.05981264 0.093601234 0.007878784 -0.08418018 0.11540865 0.094456844
나 0.038878534 0.022387873 -0.13217367 0.090318464 -0.008701393 0.023057992 0.007587759 0.007730773 0.021027634 0.009353313 -0.02417541 0.013041353 -0.0127765685 -0.03323536 0.03194153 0.10496949
었 -0.008573125 -0.005204287 0.023161331 -0.044988602 0.0048571615 -0.04565589 0.0034944767 0.00666082 0.03640858 0.0050743455 -0.019292215 -0.039572854 0.05650226 -0.0641778 0.09024301 -0.010459638
만 0.042005464 -0.09769308 -0.06453588 0.11479676 -0.047843963 0.03620281 -0.037266634 0.122232676 -0.0113000935 0.06441262 -0.004734399 -0.06345456 0.022289112 0.07960122 -0.024199087 -0.069048524
는데 0.029510994 -0.026404414 -0.19900435 0.029513767 0.020825237 -0.047259044 0.09381003 -0.004803947 0.08976534 -0.010750805 -0.109879464 0.16082788 0.057735614 -0.11198431 -0.08754066 0.20282476
너무 0.050032023 -0.034958106 0.12599029 -0.059540704 0.03590837 -0.0384828 0.026110692 -0.22594662 -0.06159193 0.026704771 0.027235877 0.006386287 -0.069327496 0.025019972 -0.17167848 0.44186172
봤 -0.03243732 0.00879464 0.21643221 -0.041812886 0.074138716 0.023357008 0.04058076 -0.111002564 -0.06387843 -0.01673057 0.012263837 0.031085765 0.0044036196 0.030908925 0.04542617 0.17368919
적 -0.015543771 0.0224609 -0.005891902 -0.07664534 0.057202358 -0.05656252 -0.017128738 -0.038222797 0.0033817377 -0.056311425 -0.013677889 0.019457154 -0.040373955 -0.039293386 0.06287768 0.05631722
안 0.22600725 -0.114631146 -0.26889068 0.17950077 -0.22972567 0.07668101 -0.037213627 0.28273818 -0.13895424 0.14564814 0.11632193 -0.030194608 -0.12288406 0.111508 -0.07207737 0.013039398
정말 -0.08573481 0.056188874 0.041405067 -0.09911386 0.10006808 -0.03935593 0.0049693617 -0.07171653 -0.014751943 -0.003798259 -0.009564094 0.08005276 0.014453899 -0.019976418 -0.052266683 0.2704599
로 0.037786733 -0.022266148 -0.024614254 0.01310166 -0.018722763 0.02917097 -0.022539832 -0.01703701 -0.061951373 -0.0052477634 0.012793981 0.03517696 -0.02591824 -0.0077346275 -0.022500306 0.053596344
음 -0.042549234 0.041010898 0.15765126 -0.02030957 -0.004812094 -0.04173884 -0.049362246 -0.06729137 -0.049347993 0.0012984425 0.061367694 -0.027087968 0.06986456 0.074102335 0.061595257 -0.06901576
것 -0.0044863825 0.02372864 0.004051068 0.0460688 0.014544927 -0.053074133 0.06837749 -0.014841612 -0.03673738 -0.02015509 -0.015344284 0.022126835 -0.01706229 -0.050308034 -0.025122672 0.08269584
아 -0.046210665 -0.046738684 -0.027047206 -0.021425188 -0.003920139 0.0346222 -0.021145068 0.017247165 0.04110826 -0.016513897 -0.061623693 0.027323073 -0.028892243 -0.028154364 0.023574097 0.017138787
네요 -0.040241428 0.07153099 0.14684005 -0.057007853 0.061235055 -0.05072237 0.022153674 -0.02121073 0.050400183 -0.06337461 -0.00039732127 -0.091228634 -0.04282234 0.07604401 0.10100146 -0.10684679
재밌 -0.15354349 0.06761941 0.18502612 -0.24379414 0.2722258 -0.19245653 0.1089188 -0.20088385 0.29467174 -0.24093793 -0.1879047 0.034964044 0.24331191 -0.14010613 0.27740094 -0.007937171
어 0.016708473 0.03965431 0.028351225 -0.013195833 0.007361513 -0.012788373 0.035936885 -0.033690464 -0.04574314 -0.04216596 -0.022572111 0.0040610144 -0.02104335 0.0048571215 -0.009823271 -0.00076792226
같 -0.032786682 -0.015479244 0.09658677 -0.03091206 0.020669883 0.013130795 -0.021188984 0.05431299 -0.094147615 -0.01776975 0.053781044 0.07681511 -0.07975676 0.016437229 0.02678892 0.03644279
점 0.07407432 -0.085362755 0.015030563 0.09200782 -0.033378143 0.11307929 -0.13930675 -0.088624895 0.066551946 -0.041144166 0.15927579 -0.17714833 0.26388994 0.11984757 0.008450824 -0.116422914
지만 -0.021214467 -0.002544866 -0.10492681 0.04701792 -0.031934958 -0.012563414 0.17804976 -0.118428536 0.09267574 0.05875573 -0.16604199 0.3424729 -0.06784492 -0.20996094 -0.2101336 0.661896
진짜 -0.05951775 0.02839006 0.062191255 -0.021116735 0.040578987 -0.026135474 0.08779279 -0.10154356 0.055919666 -0.0061908565 -0.06548984 0.08517256 0.057774544 -0.011188215 0.0041488144 0.24069297
했 -0.03543965 -0.007874278 0.068065286 0.013748462 0.045111757 -0.030637518 -0.058766384 -0.0023569549 -0.05795389 -0.030609002 0.023981156 0.013549059 -0.059740234 0.042832367 -0.012493775 0.012111824
에서 -0.071405314 0.023325402 0.06411868 0.01990449 -0.045787413 -0.022701198 0.021811644 0.0019234146 0.009004562 0.011122556 -0.056034986 0.13873689 0.096140906 -0.049926784 0.048547573 0.05485757
기 0.03250078 0.025823252 -0.0055006472 0.060109947 0.007110161 0.09138145 -0.06054577 0.045685686 0.03958451 -0.0061817663 0.01097206 0.030457277 0.008849822 0.090912245 0.058499295 -0.027514925
네 0.017820846 -0.038129393 -0.076904334 0.09514728 -0.026828699 0.017296096 -0.084628806 0.025012309 -0.0280412 0.055011824 -0.0092374375 -0.02438761 0.09284505 0.07469459 0.011118302 -0.061330333
않 0.103277035 -0.1669708 -0.27361208 0.1633298 -0.10045139 0.010078991 0.05314496 0.18394656 -0.03886736 0.09949283 -0.09472796 0.19258311 -0.19134197 -0.11875454 -0.31262064 0.4213163
거 -0.026287409 -0.022379613 0.0011789163 0.0028865365 0.04911985 0.034907985 -0.030709483 0.009329051 0.06674163 -0.032956958 0.06930743 0.013459238 -0.07085625 0.037467845 -0.05331023 -0.029921291
았 0.024557376 -0.026532749 0.027651327 -0.021582708 -0.0057906616 0.031830687 -0.065877356 0.02807946 0.04314844 -0.037237506 0.06879883 0.07144275 -0.014300313 0.044128295 -0.0042041484 0.06732385
수 -0.012045693 0.08240414 -0.06446946 0.028041454 0.008439058 -0.0018985671 0.10068596 0.006665807 0.08327953 -0.008679826 -0.102055654 -0.01646221 0.07610507 -0.109631546 0.16424705 -0.13582517
되 -0.039654437 0.0033070468 0.14258052 -0.032072995 0.06254542 0.030706247 -0.0057335603 -0.11404068 0.05926315 -0.0076113762 -0.010491293 0.0561808 0.0019394683 -0.03727734 0.004375953 0.06582042
면 0.030203002 -0.06960869 -0.16434342 0.08629356 -0.002551484 0.057566423 -0.017572397 0.056910384 -0.03019271 0.007963156 -0.08437307 0.025598668 0.0097870985 -0.022208022 -0.01387781 -0.022134898
ㅋㅋ -0.1255478 0.02886102 0.09889939 -0.06754418 0.10872015 -0.08504496 0.048491623 0.004380428 0.018792313 -0.04309813 0.0016995295 0.04941662 -0.048844166 -0.020881359 0.04082633 -0.06586429
말 0.02656674 0.005906185 -0.119769074 0.06347125 -0.023022814 -0.03167726 0.07769341 -0.04310394 0.09513241 0.051860828 -0.062393636 -0.059117503 0.03195168 -0.04722117 0.028828634 0.13965778
연기 -0.092014514 0.09121541 0.12629724 -0.07416197 0.08570448 -0.062974475 0.017676799 -0.059252545 0.029053962 -0.09380831 0.018375175 -0.050445534 -0.014413119 0.046207815 -0.008015368 0.08777525
인 0.010248878 -0.0010679762 0.12834142 -0.061235555 0.044802606 0.016976334 -0.044980668 -0.0571829 -0.114414215 -0.014178142 0.052090503 0.03157797 0.024298046 0.04557953 -0.017648477 -0.034394655
주 0.03829822 -0.0115126725 0.10897655 -0.014378815 0.11357523 0.024077848 -0.008137725 -0.043780103 0.075315915 -0.05933913 0.049011588 0.12888049 -0.04698358 0.016901663 -0.07449524 0.1142864
내 0.04668992 0.049589954 -0.012011878 0.036294736 -0.031711403 -0.0011310417 0.05352731 0.050301682 -0.033264052 0.0071307872 0.0016872676 0.02898245 -0.018302666 -0.06662556 0.015262495 0.09204261
최고 -0.13461964 0.15264167 0.178998 -0.21117994 0.20110881 -0.22384256 0.27398416 -0.36117324 0.2337783 -0.23671558 -0.27000153 0.1352883 0.1662213 -0.2860013 0.071091704 0.35688117
~ -0.06814812 0.04580035 0.07811793 -0.0636471 0.07215436 -0.0759474 -0.039210726 -0.058595162 0.03133925 -0.05083488 0.020919818 -0.030584872 0.032601718 -0.01282974 0.036252066 0.015354425
평점 0.009458487 0.038922086 -0.029149067 0.011772394 0.009545874 0.04750322 0.002714624 0.06405199 -0.024526717 0.016380984 -0.032212395 0.10878114 0.04143716 -0.0050782408 -0.029850718 -0.10187518
이런 -0.049894303 -0.07092393 0.028239032 -0.024773676 -0.033454876 0.0014318567 -0.057496723 -0.08300391 -0.037231877 -0.05094263 -0.017003346 0.0179743 -0.05160391 0.02548182 -0.08213612 0.114595704
던 -0.021767102 0.053868104 0.041194055 -0.08428954 -0.0008350795 -0.031223368 0.062430356 -0.036292017 -0.021714007 -0.00993337 -0.022806749 0.069420345 0.0051000784 -0.026860287 -0.013038072 0.10413593
어요 -0.072279446 0.09740512 0.20173727 -0.08007492 0.1282486 -0.071669534 0.032561556 -0.105534315 0.028908016 -0.060317487 0.09181838 -0.13628036 0.115999386 0.006841791 0.17555963 -0.18669236
할 0.04686484 0.0331985 -0.050290998 -0.0015389742 -0.008473969 -0.030410219 0.01918979 0.014849405 0.030821003 0.012179322 -0.047468137 0.026911005 -0.06979352 -0.05384394 0.055122398 0.09629347
왜 0.09349058 -0.038112175 -0.08813174 0.04521434 -0.15037403 -0.024738664 -0.0072859707 0.060686387 -0.021839516 0.121188805 -0.016875472 -0.10816636 -0.021535281 -0.006404558 0.05675013 -0.069721535
겠 0.07290325 -0.05028443 0.0084349355 0.12017621 -0.07670474 0.05935216 -0.07936462 4.19699e-05 -0.08804976 0.114293315 0.13027227 0.04526076 -0.11628968 0.015415885 -0.1026881 0.20710818
1 0.15910128 -0.1710966 -0.23988989 0.14289844 -0.21848477 0.1318409 -0.060216796 0.18559153 -0.12959735 0.21097006 0.063251555 -0.019422995 -0.048200905 0.088401265 -0.009208857 -0.016561344
스토리 0.08965968 -0.012037262 0.012236705 0.054387752 -0.020041093 0.03427167 -0.05874501 -0.055890545 -0.018122477 0.008460293 0.059455656 -0.0025022214 -0.011209352 0.04228677 -0.017908176 0.12390197
해 -0.030915204 0.02263796 0.038705677 0.019859308 0.0030262182 -0.03683868 -6.8529225e-05 -0.023340957 0.016725048 0.012601259 -0.039836947 0.034273434 0.018584307 -0.036941305 0.051854502 -0.0027076227
습니다 -0.0097272275 0.03441526 0.1838697 -0.058497217 -0.0032501468 -0.06793613 0.054890756 -0.05344503 -0.0006492493 -0.028424991 0.05701727 -0.06577864 0.078173004 0.007521671 0.17267276 -0.16260664
ㅋㅋㅋ -0.03076457 0.024411706 0.04617452 -0.046073955 -0.0013194993 0.06407538 -0.034822352 -0.04854497 0.0035617244 -0.061247606 0.025242152 -0.029115157 -0.039091207 0.06542094 0.022015486 -0.12385175
... -0.0013804098 -0.037028722 0.039821118 0.04476012 0.0105460165 -0.009577891 0.011080268 -0.042714395 -0.005466724 0.020736 0.05225104 0.08592758 0.03393107 -0.04119212 -0.019664617 0.05391155
드라마 -0.01670174 0.05650672 0.17385927 -0.04889372 0.044571474 -0.084988736 0.006565957 -0.10837352 0.0035283647 -0.04531069 0.023326073 -0.16646324 -0.01783406 0.033200797 0.077246204 -0.09852859
생각 0.019455945 0.12165605 0.06913067 0.0150891375 -0.06089736 -0.08506246 0.10028096 -0.05812714 -0.0422205 0.017675867 -0.093419224 0.06384259 0.13879713 -0.0720235 0.16401173 -0.08194812
아니 0.17873125 -0.23559219 -0.3778765 0.17745963 -0.19374086 0.13595599 -0.012941315 0.15116023 -0.022406243 0.139709 -0.013361649 0.12781826 -0.21798457 -0.06641205 -0.19478402 0.178169
더 0.097404845 0.03175775 -0.0033552542 0.067074075 -0.042870123 0.04194774 0.0044147735 0.09455663 -0.115658656 0.02558421 -0.0026433293 -0.021683972 0.0037173985 -0.033557735 0.019092955 -0.14476801
그 -0.03986185 -0.033642177 0.0132441055 -0.013994416 0.04772367 -0.03154948 0.025972594 -0.086191475 0.017950548 -0.062484663 -0.051364105 0.07173031 0.04825562 -0.023840442 0.048386425 0.06861227
싶 -0.08794441 0.043790877 0.058390945 -0.018246045 0.076631844 0.009799846 -0.03516704 0.013322743 0.13681795 -0.05854781 0.07947443 -0.19189587 0.0126693975 0.011899887 0.16376676 -0.11503978
사람 0.009556776 -0.0005969263 -0.12220097 0.063363485 0.0021251654 -0.005259724 0.094064996 0.15141723 0.039620362 -0.03590111 -0.093813576 0.070616804 0.0043698903 -0.10571105 -0.042377144 -0.12006687
듯 0.040747587 -0.0067478893 -0.06950094 -0.005332601 -0.0152562335 0.03355659 0.073113255 0.054984327 0.072179794 0.006618217 0.0016342634 0.035616085 0.012111652 -0.0023561635 -0.0029545256 0.065469764
때 -0.014307376 0.100050285 0.05998866 -0.06544332 0.06526542 -0.07652868 0.07224317 -0.032529797 0.067945994 -0.05964296 -0.09737923 0.047309563 -0.00065667555 -0.09876004 0.10178623 -0.014933568
감동 -0.20199029 0.06613988 0.14007235 -0.21514232 0.23582569 -0.14913593 0.1742693 -0.2556547 0.13112184 -0.22600397 -0.049962785 0.114952765 0.12521589 -0.095395416 0.006887068 0.30975538
함 0.014691172 0.034043327 0.06383728 -0.07884009 0.06683312 -0.02186262 0.005527656 -0.008916837 -0.0627948 0.02631033 -0.05273704 0.0470681 -0.029903335 0.022535993 -0.080785125 0.050458018
배우 0.03929521 -0.0058357627 -0.028465323 0.046998642 -0.02702878 0.017619208 0.017270597 -0.0012743741 -0.019131497 0.008086776 0.040661674 0.074736744 -0.028087283 0.016170701 -0.11299137 0.020136582
본 -0.071229346 0.06690774 0.100899234 -0.103079274 0.052999493 -0.009788412 0.06748138 -0.055006117 -0.013189092 -0.013578166 -0.021538278 0.10747155 0.021179484 0.018292552 -0.008028441 0.09986491
까지 -0.007935589 -0.06101865 0.12910448 -0.019014109 0.031134864 -0.02997097 -0.007627867 -0.025565738 -0.05752107 -0.06662689 0.016678086 0.05497011 -0.011861286 -0.02856693 -0.12397509 0.084796615
뭐 0.102627195 -0.12148393 -0.032996766 0.1223827 -0.059153832 0.03326076 -0.079230696 0.116384596 -0.103537284 0.07954071 0.06837907 -0.037372068 -0.04781854 0.10563057 -0.12859297 0.048144326
알 0.028541692 0.039950043 0.017246898 0.0005911433 -0.08394905 0.02664685 0.00942428 0.022999056 -0.07036444 0.008760643 0.076641515 0.052816734 -0.01775488 -0.02188039 -0.05778782 0.1137126
만들 -0.004173948 -0.06270205 0.08861868 0.050211016 -0.003924466 0.046683073 -0.13483734 -0.097941376 0.047643118 0.032273874 0.11246952 -0.07052066 0.042580295 0.098417684 -0.0382633 0.1576991
내용 0.06565342 -0.11552226 0.013857256 0.11032043 0.003354691 0.12637344 -0.095416784 -0.088914745 0.037419584 0.02496181 0.014847058 -0.030413115 0.061296932 0.104842596 -0.03052411 0.26210964
볼 -0.095987216 0.03512629 0.02660218 -0.14169876 0.19259337 -0.09276576 0.108905576 -0.05094765 0.22170219 -0.12028743 -0.13995348 0.07879021 0.05388862 -0.122791946 0.05524938 -0.019826854
감독 0.06796848 -0.06438891 0.020261582 -0.011303667 -0.020456338 0.06971716 -0.09611302 0.032355957 -0.096416116 0.031735923 0.09470781 -0.102948815 -0.07740304 0.09710709 -0.119452976 0.028838398
보다 0.037217904 -0.04225255 -0.0050369767 -0.0061614267 -0.021408083 -0.039793402 0.08298172 -0.067543015 -0.069082804 0.02511243 -0.0587687 0.2896381 -0.052013505 -0.048452515 -0.18862318 0.23590493
라 -0.032425128 0.0037280114 -0.06678412 0.021175351 0.02685965 0.04905971 0.008468059 -0.018665893 0.008059134 -0.035509728 -0.059622776 0.03028388 0.06817397 -0.04713226 -0.0771673 -0.022999117
그냥 0.028907714 -0.10602455 0.0127625195 0.055072818 -0.052617744 0.017640682 -0.0647838 -0.07290159 -0.000933197 0.02345749 0.11826932 0.036334623 -0.058647603 0.03329966 -0.15014821 0.18554123
재미 -0.0525408 0.033087496 0.20134176 -0.058969356 0.03704479 0.055283334 0.039883014 -0.23315121 0.10736959 -0.13272803 0.022884073 0.019063003 0.0059050433 -0.06286279 -0.11204791 0.4211214
시간 0.10931877 -0.06905656 -0.10099141 0.07536198 -0.086454764 0.09860255 -0.060566094 -0.010387508 -0.053518027 0.13285914 0.08575397 -0.04329568 0.0058534034 0.03164222 -0.028787384 0.16208209
지루 0.27133045 -0.23669674 -0.36041707 0.3078764 -0.52660066 0.21971889 -0.21061887 0.17193818 -0.1837921 0.42831793 0.1903476 -0.118659995 -0.16068895 0.23560636 -0.14686029 0.2003898
중 0.014145754 0.07546672 0.072242744 -0.012404944 0.0066686417 0.014648164 0.016255157 -0.11426043 0.047762632 -0.061056163 0.010559233 0.016690651 0.04053172 -0.08369579 -0.011123266 0.12674648
재미있 -0.14990377 0.16686979 0.20339149 -0.21964717 0.28049758 -0.13232553 0.13146923 -0.1858193 0.27083322 -0.25887161 -0.15508375 -0.03496399 0.21309914 -0.15350212 0.15248121 0.13366455
년 -0.065709 0.12218612 0.030161625 -0.00075182447 0.0037618235 -0.076081775 0.027714115 -0.025521835 -0.005213017 -0.0543279 -0.06883871 0.017708713 -0.033820353 -0.061216637 0.091169395 -0.03876288
10 -0.20006108 0.070252724 0.12516055 -0.2780974 0.23188531 -0.19139923 0.15057738 -0.15705633 0.16731793 -0.23385708 -0.14734976 0.4214368 -0.0049521853 -0.09436638 -0.1511218 -0.07643628
였 -0.11616879 0.026755122 0.090186045 -0.060303867 0.0768629 -0.04938715 0.033403456 -0.029605266 0.035326727 -0.015145316 -0.05883112 0.13997534 0.005983766 -0.08018659 0.0698502 -0.09857605
잼 -0.036592823 0.08220801 0.38080218 -0.16115445 0.18271524 -0.011323171 -0.041708868 -0.3020115 0.20592883 -0.17624101 0.031639937 -0.049226433 0.197653 -0.041631605 0.0791548 0.31616133
사랑 -0.097463205 0.15198594 0.058093812 -0.14107138 0.13150048 -0.11844645 0.16232686 -0.18720514 0.08336582 -0.14490223 -0.21204108 0.2179838 0.08375139 -0.1616636 0.06394908 0.027218446
못 0.15521531 -0.06599307 -0.30390528 0.17209929 -0.24218601 0.14097057 -0.04117686 0.2386819 -0.10711011 0.20449303 0.06365648 -0.06865428 -0.19372743 0.043121032 -0.11153056 0.021451376
냐 0.10587809 -0.15805027 -0.0983235 0.12524447 -0.11194568 0.11392933 -0.058155764 0.07726748 -0.08727055 0.05855393 0.094734475 0.031514395 -0.1491255 0.08740533 -0.26646483 0.092074595
재미없 0.34159768 -0.3627473 -0.27059904 0.30737832 -0.3818296 0.30094963 -0.32809642 0.3818343 -0.38024357 0.42679432 0.29256794 -0.27585265 -0.3144985 0.31997767 -0.3824543 0.29415256
쓰레기 0.3243749 -0.31530407 -0.29193643 0.27752352 -0.35964513 0.32248035 -0.25951415 0.37811878 -0.33412775 0.41936657 0.3050887 -0.25452018 -0.33637223 0.3174871 -0.28233123 0.20170493
서 0.018656248 -0.043726105 -0.06900643 0.025392115 0.04355565 -0.019571507 0.0072181867 -0.033064924 -0.056129105 0.015276392 -0.037645906 0.011268309 -0.07261958 0.014298329 -0.055322338 0.021151945
2 0.11676016 -0.07959465 -0.12234011 0.08096256 -0.087933175 0.054223035 -0.033051666 0.11347359 -0.043661844 0.12884094 -0.03534142 0.06430477 -0.015576963 -0.025434315 0.07091331 -0.008035332
라고 0.08461412 -0.09522067 -0.053267963 0.04951225 -0.07964125 0.04820472 -0.02445961 -0.052093975 -0.09254907 0.09925806 0.019866003 0.046191383 -0.074585594 0.018001065 -0.2134104 0.15482783
야 0.03026456 -0.08760223 -0.056162294 0.04801912 -0.09213478 0.011936928 -0.020640336 0.031223565 -0.010726003 0.054969717 0.0033584705 0.028514577 0.009348069 0.01977674 0.013055983 -0.05012514
니 -0.018694706 -0.101744644 0.059920106 0.0053584957 -0.017634762 -0.0073040873 0.020544574 0.052344233 -0.0288064 -0.042593703 -0.030013295 0.040801857 -0.029647354 -0.014964568 -0.023178706 -0.07545757
면서 -0.0052612084 0.008204114 0.0139471525 -0.022305308 0.06735756 -0.04076081 -0.0028980398 -0.08609969 0.020176569 -0.013400496 -0.053768374 0.06212363 -0.004047237 -0.009177187 0.061636113 0.0759902
번 -0.1191039 0.055129297 -0.015550553 -0.036157776 0.08264784 -0.04498959 0.10352303 -0.08869269 0.11791404 -0.013642976 -0.15565383 0.03844276 0.015872411 -0.13150759 0.092949875 0.14937279
다시 -0.04111985 0.09330446 0.05037123 -0.058758333 0.06920841 -0.12923864 0.15711753 -0.09067986 0.14896563 -0.07312548 -0.14557318 0.037978973 0.08799648 -0.14818549 0.056785297 0.23307459
나오 0.0059492746 -0.019423543 0.070300154 -0.00900526 -0.049220204 -0.032286912 -0.042542476 0.005618424 0.025480535 0.02292122 0.048078023 0.052895773 -0.038890515 -0.0003304138 -0.036318995 0.10707187
작품 -0.06556638 0.06200627 0.08879051 -0.063751645 0.048408438 -0.09007583 0.058414906 -0.08757226 0.077306576 -0.07750883 -0.029508593 0.053986803 0.0793014 -0.04142246 0.09136335 0.032203842
이거 -0.006831069 -0.042369142 0.048339482 -0.054990362 0.06470138 -0.033949472 -0.04908374 -0.0066277185 0.040694233 0.03467814 0.00724436 -0.04256315 -0.01664336 0.0033020715 -0.014518423 0.03271157
하나 0.01721743 -0.10363795 -0.06694966 0.072717294 -0.017672405 0.02413546 -0.031019779 -0.031605635 -0.017714059 0.05306127 0.059846137 -0.0026113985 0.0067458213 -0.027314898 -0.0275313 0.20170046
줄 0.025774226 -0.022070441 -0.047114916 0.045154564 -0.0025154485 -0.0004330239 0.020407049 0.005528077 -0.05201572 0.061208066 0.004789725 0.06995426 -0.12112998 -0.057845324 -0.11157286 0.1850863
해서 -0.05227758 -0.022108842 0.0068467576 0.01799945 0.016820684 0.037504252 -0.047932196 -0.0023295684 0.002522057 -0.024651682 -0.026269602 0.09241611 -0.036721624 0.008074705 -0.03507677 0.11161903
개 0.07850183 -0.016476013 -0.035348944 0.060498614 -0.0049879514 -0.028231068 -0.056436542 0.033297274 -0.017547276 -0.026645236 0.03785879 0.0140762795 -0.06872165 0.038072348 -0.08744246 -0.034335174
남 0.010744049 -0.049295217 0.0733513 0.016136983 -0.010653782 0.03929804 -0.05759447 -0.14123619 0.048366915 0.013514215 0.019336082 -0.108262256 0.00976933 0.06540957 0.06518481 0.1851474
정도 0.052809276 -0.0425315 -0.081496395 0.043421898 -0.040489197 0.050749496 0.05088576 0.0099112345 0.095222704 -0.0015507103 -0.02436888 -0.043208916 0.0816824 -0.0073852213 0.064205825 0.08938513
마지막 -0.105103426 0.12097051 0.008738335 -0.10162023 0.016663358 -0.07789056 0.07528634 -0.059173983 0.08771696 -0.05584508 -0.08099918 -0.011164589 0.087001085 -0.08471271 0.104612 -0.071318805
끝 0.073604874 -0.01518112 0.019032067 0.0040925276 -0.09049681 0.031059586 -0.033303976 0.037055876 -0.02531079 0.02646841 0.08667774 -0.09802908 -0.034083396 0.04492071 -0.018236563 -0.042660277
이건 0.1385323 -0.09727444 -0.039841067 0.121167056 -0.048699643 0.1751149 0.0062417844 -0.29366273 0.1116154 -0.017317247 0.052451234 0.0033927227 0.030765232 0.040995415 -0.10208424 0.47921604
액션 -0.07355391 0.04962328 -0.018713005 -0.03241837 0.029216068 -0.0069032847 0.08446816 -0.10920298 0.05372102 -0.080021776 -0.047637995 0.054566592 0.1027074 -0.01515334 0.05173653 0.008776599
임 -0.048776083 0.02660368 0.05676253 0.018785367 0.06409144 0.021983027 0.032028172 -0.08319749 0.16739763 -0.06597285 0.031881135 -0.027599268 0.06987809 -0.013479494 0.042231534 0.018693134
ㅋ -0.13638546 0.10291471 0.058629554 -0.11857767 0.08192233 -0.0009818053 -0.003435305 0.03510019 -0.07974958 -0.064665124 0.040898383 -0.039809898 -0.0136947455 0.0002689293 0.06488579 -0.1739759
3 0.14370236 -0.09619347 -0.1795507 0.09701343 -0.16575474 0.050157584 -0.03909843 0.044913054 -0.035177886 0.105797805 0.02480335 -0.0054297145 0.035120912 -0.007037971 0.013755547 0.032777
기대 0.0152659705 -0.06766137 -0.00603229 0.019556578 -0.01014461 -0.024557857 0.0638263 -0.105343156 0.054943684 -0.07394858 -0.057178587 0.051098138 -0.042733163 -0.055436138 -0.050075613 0.3374178
입니다 -0.07352205 0.11031232 0.22210817 -0.10645916 0.14999066 -0.001449069 0.011645553 -0.13460949 0.09992708 -0.07698982 0.042598423 -0.045948002 0.10355554 0.023928264 0.14071804 -0.10675383
건 0.05427626 -0.024334276 -0.09208335 0.056525715 -0.018501353 0.055285804 -0.07099666 0.13596593 -0.00959785 0.01986497 -0.005545756 -0.001837014 -0.13538928 0.0011393238 -0.12922993 0.029797697
라는 0.0061750533 0.0002965965 0.013337683 0.08338146 -0.111159205 -0.009062436 0.014953582 0.013632268 0.010702241 0.01656721 -0.023211446 -0.027641065 -0.07591218 0.008503615 -0.004293022 0.04192448
분 0.08875185 -0.1814414 -0.17030896 0.16139571 -0.12639332 0.08113503 -0.057553783 0.15849854 -0.109975174 0.17849626 0.019289114 0.049943045 -0.21731716 0.06676368 -0.26699165 0.0760965
완전 0.07071511 0.002336593 0.13187931 -0.017572906 0.019781873 0.021153986 0.06174216 -0.2822487 0.052672908 -0.053912144 -0.00295482 -0.054198507 0.009051855 -0.07642176 -0.010399271 0.546589
다는 0.026217997 -0.07141468 -0.054930277 0.06346927 0.026379442 0.035391655 0.03724978 0.10244769 -0.14811486 0.056545492 -0.03957376 0.060340997 -0.12672663 -0.06035743 -0.050996546 0.10856405
참 0.06477511 0.016157629 0.035227913 -0.0063570207 -0.05236661 0.08289309 -0.037346076 -0.055117793 0.010438015 0.034681097 0.06044783 -0.026316546 -0.030016966 0.033502962 0.047569834 0.19813111
많 -0.012440396 0.044375062 -0.035076093 -0.060396817 0.003005519 -0.046794776 0.13220058 0.076035656 0.06256978 0.042246077 -0.08517928 0.03677875 0.04049813 -0.052446995 0.19394127 -0.11270651
처음 0.035237737 0.074480444 0.017070826 0.030313278 -0.0743888 0.02952748 -0.057050113 -0.03620797 0.027739199 0.056659814 0.042606637 -0.1146977 0.053113904 0.028851312 0.09842128 0.11450261
장면 0.016035637 0.009390751 0.095133364 0.0045153797 0.039939485 0.013654259 -0.01159835 -0.058963783 -0.09519055 -0.04937004 0.021443028 0.05771623 -0.030406807 -0.036379766 -0.0633892 0.12681547
대 -0.0004166716 -0.037373 -0.19386546 0.0371314 -0.029289605 0.007063833 0.046751793 0.0857979 0.022973074 0.0814876 -0.08908035 0.07150489 -0.071641356 -0.097054705 -0.04118059 0.0956881
아깝 0.18388562 -0.11327286 -0.15481567 0.20456874 -0.27560034 0.2238816 -0.27087864 0.043537114 -0.13000232 0.18768625 0.20199001 -0.22167686 -0.043863017 0.22933358 -0.059523296 0.09605604
다가 0.12747449 -0.107473485 0.00039936113 0.100683354 -0.07826627 0.019459115 -0.07256521 -0.11898804 -0.13240509 0.022101182 0.08642316 0.0953965 -0.06527761 0.02493511 -0.2882792 0.30385068
으면 0.021333773 -0.05654519 -0.009461751 0.061847925 -0.03804672 0.040488157 0.03595689 0.062746964 -0.103403576 -0.008388985 0.04295281 0.05034341 -0.12910044 -0.022826273 -0.12735501 -0.10726464
지금 -0.08772687 0.07015629 -0.013346687 -0.036731813 0.018454792 -0.11873303 0.09196827 -0.12728825 0.051557496 -0.04180595 -0.15672341 0.03425323 0.051839247 -0.13410027 0.07579319 0.03897605
모르 0.046610147 0.0021241144 -0.044419285 -0.064234555 -0.01076869 -0.05947786 0.03558007 -0.10176494 0.04776124 -0.008866791 -0.077606864 0.18056725 -0.016662747 -0.03737078 -0.1015506 0.2137725
이렇게 0.00017404398 0.0024682889 0.1221968 0.0061895633 0.0073619615 0.020434836 0.006874909 -0.2582929 0.013393454 -0.06754346 0.011023097 0.15669955 -0.06060428 -0.066628546 -0.12882462 0.34125307
' 0.0032364568 -0.052903887 -0.032031283 0.052868366 -0.0147669595 -0.0026052096 0.0005507957 0.023030572 0.065034315 -0.00861314 0.014132632 0.008111565 0.038411 -0.054794822 0.009638215 0.077992566
편 -0.08691647 0.086277395 0.0253112 -0.03736217 0.051604938 -0.07056202 0.025614247 0.040858354 0.023255901 -0.08074155 -0.094269566 0.032575008 0.058770716 -0.015120503 0.040417712 -0.14971514
일 0.045515113 -0.042654876 -0.04087195 0.049704853 -0.052993823 -0.0032025096 -0.028313529 0.019705957 -0.00840316 0.054115493 0.031558152 0.050647456 -0.03065116 -0.021806581 -0.07319799 0.08485187
돈 0.17954977 -0.17629308 -0.16887565 0.1876246 -0.13269633 0.1966913 -0.19674036 0.25061235 -0.10983372 0.10337235 0.20725217 -0.23333691 -0.08853494 0.22684118 -0.09942657 0.0007885845
이게 -0.0039046686 -0.013759773 -0.03966838 0.049374755 -0.016868312 0.02700925 -0.067897245 0.083736524 0.039121576 -0.016137388 0.08219157 0.06489671 -0.06773204 0.00015121499 -0.085861616 -0.06403184
성 0.05938092 -0.040045638 -0.012151585 0.050865225 0.02053556 0.021464808 -0.01965131 -0.025355352 0.061086982 0.009133083 -0.0011224889 0.023353482 0.020665588 0.03526614 -0.1074504 0.04035346
느낌 0.043773577 -0.0026040282 -0.0023903963 0.016255477 0.015499616 0.037543375 -0.030775815 -0.076734066 0.057788003 -0.02604791 0.019108066 -0.09969621 0.12444616 -0.01877261 0.072119184 0.12726131
시 0.01028373 -0.049775146 -0.045484036 -0.020856075 0.012511648 0.008381795 0.0604971 0.10297326 0.054327942 0.010790624 -0.01476585 -0.008415488 -0.0011550079 -0.0151689425 0.039094925 -0.17986773
이야기 0.022915723 -0.00070560776 0.1197827 -0.014750653 -0.060510676 -0.06405981 0.033040937 -0.047508027 -0.046959765 -0.011893202 0.024101453 0.1164252 -0.025237747 0.04088868 -0.053177826 0.11799905
최악 0.37811977 -0.3416687 -0.35847947 0.3282371 -0.32546017 0.40081975 -0.34542164 0.036383558 -0.422477 0.40409797 0.3280515 -0.32304358 -0.37016088 0.35345855 -0.45142323 0.57454836
된 0.041528422 0.021077666 -0.009021381 -0.0033634568 0.029859487 -0.056297395 0.061806776 -0.0022440788 0.0066694 -0.017223695 -0.041097082 0.039551746 -0.04425095 0.020071873 -0.02850237 -0.022577958
봐도 -0.0014385459 0.15681092 0.23845212 -0.12323182 0.08294141 -0.045541238 0.03849967 -0.23481478 0.121304125 -0.12930825 -0.00040551394 -0.111139596 0.21272263 -0.018279543 0.16134419 0.13634239
님 -0.1503528 0.024347762 0.05407877 -0.069691025 0.09969222 -0.05048114 0.072229676 -0.020314362 0.014593921 -0.037832513 -0.043548793 0.084575735 -0.001442078 -0.011142555 0.026033197 -0.12165269
어서 -0.028098421 -0.029239248 0.12474893 -0.048348907 -0.011097804 -0.027941741 -0.061291575 -0.018343598 -0.09951455 -0.026137875 -0.023598766 0.025065646 0.070932984 0.072919585 -0.0264358 -0.024086032
애 0.054135673 -0.03761633 -0.043191686 0.087777324 0.036249343 0.042748846 -0.0462601 0.0954845 -0.006133404 0.050035015 0.055975597 -0.0936957 -0.028610455 0.024417635 -0.0820516 0.023603339
전 0.007165224 0.031195793 0.0039470224 -0.07772489 0.06793585 0.027215123 0.06446489 0.032045137 4.259694e-05 -0.06291048 -0.07877173 0.041320283 -0.0022907327 0.019890483 -0.004569612 -0.017884484
넘 -0.0077349776 -0.01474377 0.112667404 -0.05525971 0.016309818 0.0009992558 0.0160747 -0.19579507 0.05754592 -0.032222025 0.006542807 0.10423408 0.020297289 -0.0757875 -0.14007448 0.42581913
ㅠㅠ -0.11363208 0.09607493 0.14126506 -0.1433575 0.1287357 -0.068702996 0.108699076 -0.044018947 0.037870765 -0.045546297 -0.14157364 0.017566586 0.091023445 -0.055493288 0.07690028 -0.11811206
인데 0.07905804 0.011562702 -0.014404526 -0.01675377 -0.08203977 0.0281794 -0.004113634 -0.059805557 -0.04245326 0.010902359 0.015437928 0.07890727 -0.0046920213 0.04757065 0.0022458285 0.12604403
다고 0.11280702 -0.1032999 -0.15184711 0.07589775 -0.07069179 0.012701559 -6.414057e-05 0.0659902 -0.07773752 0.10403636 -0.014088618 0.2730338 -0.22168091 -0.03430858 -0.29682615 0.25710353
이해 0.00255581 -0.059554864 -0.041609 -0.03827907 0.061375905 -0.006099575 0.040554702 0.013512367 0.027349632 -0.059004646 0.0036690976 0.086318105 -0.04797573 0.02942354 -0.11329297 0.022630531
별로 0.24877141 -0.22317019 -0.2692881 0.31443915 -0.3978682 0.28580883 -0.27052805 0.16817398 -0.24041076 0.2936866 0.29978484 -0.20847711 -0.21969981 0.2556016 -0.23142265 0.18988752
그리고 -0.04501281 0.08059732 0.20047712 -0.058820248 0.12272631 -0.0911042 0.09324052 -0.1707172 0.1716436 -0.09880918 -0.08007225 0.057958696 0.05614595 -0.031700447 -0.017524669 0.13929108
명작 -0.2763418 0.23024836 0.22452185 -0.26608178 0.24515134 -0.25797775 0.24831921 -0.26460165 0.21549368 -0.28316495 -0.3027454 0.26164383 0.21585874 -0.23513049 0.12315822 -0.015461034
여자 -0.0051998 -0.07165602 -0.13231638 -0.00029237577 0.05205685 0.04831137 -0.062851936 0.087573454 0.0074936436 0.0033230493 0.04149625 -0.05411832 -0.08524664 0.006588149 -0.0822503 0.031348914
^^ -0.06285449 0.054007392 0.1276348 -0.07332337 0.09042804 -0.08727976 0.06342427 -0.13634901 0.013553972 -0.075757734 -0.07345175 0.14587626 0.08321305 -0.13195345 0.012300313 -0.007951077
역시 -0.0371776 -0.008213381 0.10499718 -0.057189636 0.03479142 -0.045323465 0.1024028 -0.21454719 0.07971858 -0.108656794 -0.0012714901 -0.049429618 0.09304604 -0.07661667 0.060886797 0.17180772
난 0.0047868486 0.019190079 0.067848556 -0.096334085 0.027505994 -0.078001305 0.122571595 -0.13553336 0.055504084 -0.08736223 -0.070766054 0.066670045 0.023457134 -0.10858465 -0.014179967 0.22563365
이상 0.054548357 0.036771376 -0.022771586 0.02560345 -0.017439261 0.0076647145 0.008256002 -0.04450693 -0.045231637 0.009013103 0.008925742 0.013212538 0.022094017 -0.017342612 -0.05458073 0.08888572
또 -0.079549015 0.05867123 0.13625705 -0.046410587 0.038727354 -0.14716849 0.02164739 -0.07897224 0.02298528 -0.08177059 -0.012354956 0.07350791 0.09527182 -0.033579953 0.09305725 -0.032562762
걸 -0.033930246 0.006432039 -0.07441616 -0.030606775 -0.06328014 0.003976286 -0.0063216994 0.11319651 -0.018144539 0.013532333 -0.016802961 -0.026997896 -0.0970135 0.033353403 -0.07188791 -0.07064399
한국 -0.043604083 0.00018780446 -0.047222797 -0.05379148 -0.005412151 -0.057354808 0.002930669 0.041036952 -0.024284901 0.017879477 -0.024834707 0.06003398 -0.014062917 -0.023617746 0.094970874 -0.21391338
는지 0.02085726 -0.10619876 -0.03521351 0.023697874 -0.027081978 0.08537401 -0.055445056 0.08456738 -0.013028671 0.036638297 0.09982341 0.0261821 -0.08867135 0.10156353 -0.08483605 0.026424112
많이 0.038794324 -0.078788616 0.067277595 0.022887398 -0.0020156235 -0.052410156 0.043103393 -0.042544514 -0.105601855 0.058017015 0.039956074 0.15491392 -0.0577783 0.0034334133 -0.12651023 0.057201274
에게 -0.06317799 0.015724247 0.11602621 -0.04667097 0.067401305 -0.06838859 0.054277655 0.03497133 -0.038857996 0.017899241 -0.020443108 0.07696551 0.004901307 -0.009757572 -0.05607748 -0.10692231
부터 0.052295513 -0.0367867 0.023432298 0.0769212 -0.018781433 -0.018462373 -0.005389564 -0.050038196 -0.14932077 0.06280356 0.05726104 0.049280353 -0.016312366 -0.024846707 -0.1458442 0.27236575
만든 -0.03727319 0.04631534 0.0732438 -0.046761066 0.017630406 0.02100026 -0.018974075 -0.079333045 0.10785506 -0.010913914 0.0062068133 -0.08925503 0.092866264 0.04279313 0.071892515 0.057978205
주인공 0.027681971 -0.017267808 0.0334338 0.07384069 -0.03838433 0.031051472 -0.04067138 0.01672917 -0.04691302 0.017752895 0.067126945 -0.05544717 -0.092854135 0.045859188 -0.066229135 0.10277533
받 0.04161009 -0.0029446378 -0.00013400448 0.02395554 0.023271985 0.03646284 0.037473243 -0.060612388 -0.049737062 -0.04281641 -0.013634065 0.0072223037 0.041094273 -0.0041203913 0.02093832 0.061197534
합니다 -0.07259557 0.0013539639 0.10451771 -0.039677564 0.07571094 -0.08783525 0.07727582 -0.016228115 0.0060229604 -0.07942806 -7.2459516e-05 0.05274479 -0.046689652 -0.033834998 0.048714194 0.027495129
우리 -0.059864607 0.09243656 0.14235808 -0.08083397 0.062698446 -0.16041435 0.1540398 -0.19324692 0.057372816 -0.06334255 -0.13363622 0.19834319 0.122420155 -0.12651642 -0.004543365 -0.019541971
두 -0.030337095 0.06902337 0.0015461876 -0.039051183 0.07440697 -0.003992017 -0.03369912 0.01507945 0.03788359 -0.071535006 -0.053314116 0.024393868 0.058180004 0.017275166 -0.021341855 0.027297962
살 -0.016066013 0.030544387 -0.045408074 -0.041739248 0.043872066 -0.12164161 0.070776016 0.02767335 -0.06990069 0.008874905 -0.04110083 0.1937374 -0.033717357 -0.021704819 -0.053739257 -0.01350718
!! -0.04392749 -0.034244463 -0.03310806 -0.021882752 0.06318494 0.024982758 0.06036686 -0.051026754 -0.04417298 -0.033319026 0.045135368 0.078758284 -0.06282563 0.013457338 -0.12490523 0.019703943
길 -0.021291493 0.03014837 0.054103084 -0.030346204 0.006397592 0.027166422 -0.056531493 0.10922629 -0.037730094 0.027525835 0.068007104 -0.013960201 -0.030522471 0.100000165 0.04279174 -0.060715098
엔 0.020114468 -0.036795452 -0.17919415 0.049380112 -0.053604435 0.031169463 -0.0057208706 0.03447039 -0.03434422 -0.0020520717 -0.06513031 0.021637637 -0.018534757 -0.08634055 0.018838504 0.0071930024
괜찮 -0.13748305 0.19196114 0.08873329 -0.15737043 0.2528489 -0.15221028 0.1589975 -0.18329473 0.27931067 -0.1236344 -0.21815157 -0.030985812 0.23097628 -0.11291355 0.20962358 0.05462906
기억 -0.06428318 0.07686607 0.13494222 -0.0892859 0.13143186 -0.09303692 0.10674746 -0.15219608 0.04258091 -0.11695365 -0.083442904 0.008466544 0.10748276 -0.049001187 0.07852902 0.13223977
연출 0.0048727673 -0.06237868 0.07034195 0.052679643 -0.04593252 0.10545119 -0.105757535 -0.063698545 0.02053502 -0.022424705 0.05566068 0.007226604 0.06036598 0.1644464 -0.020235924 0.15197332
한다 -0.06665839 0.025293285 -0.0062535005 0.0065976805 0.016868584 -0.02351886 0.051487196 0.010687589 -0.02769355 0.005630085 -0.057995964 0.023514029 -0.02236185 -0.0809419 0.020056732 -0.046798397
때문 -0.044964306 -0.014122901 0.008783032 0.017340971 0.09316554 -0.020182742 0.041503537 0.04356114 0.013319578 0.030349955 -0.013953462 0.06065815 0.02817987 0.0077452157 -0.0720873 0.05961337
이나 0.051286332 -0.036701877 -0.049504716 0.0926195 0.020531686 0.022209683 -0.10953578 0.04889314 -0.03471445 0.062441316 0.08717504 0.0065122703 -0.05280741 0.09230145 -0.0074848747 0.072632015
ㅎㅎ -0.22800572 0.13905567 0.19217303 -0.24837674 0.14721857 -0.27715972 0.14233403 -0.01389014 -0.06920465 -0.16755368 -0.14032832 0.21676153 0.075905606 -0.081496105 0.059133604 -0.39270347
요 -0.108180895 0.081325606 0.048077334 -0.069256455 0.053415507 -0.054822333 0.055879865 0.026358936 0.025281511 -0.015440759 -0.08409969 -0.051056013 0.037952732 -0.06476289 0.12615679 -0.25001985
저 -0.022594705 0.01289941 0.06508657 -0.08615045 0.07152477 0.0037704445 0.101266205 -0.07278909 0.094294816 -0.062869884 -0.03873569 0.026932305 0.08897493 -0.10959137 -0.0047707395 -0.044093713
재 0.011328897 0.07120853 0.07238434 -0.08796094 0.09325257 -0.07951689 0.119701274 -0.17897874 0.14117715 -0.09536444 -0.07781153 0.013919913 0.09114671 -0.08537265 0.07102799 0.17358783
꼭 -0.23934132 0.15189591 0.13476197 -0.17960964 0.16843008 -0.1821621 0.15117657 -0.1983725 0.11692824 -0.15372683 -0.17138301 0.30095258 0.07559341 -0.21112011 -0.009294468 -0.004643706
랑 -0.006730176 -0.020862965 0.028282631 -0.025657756 -0.03851527 0.029598784 0.02806718 -0.07812376 0.058783375 -0.03216377 0.041918125 -0.016210124 0.03920113 0.03225529 -0.115342155 0.09194149
며 -0.01020812 0.08054741 0.046854198 -0.04463812 0.0016565247 0.033224065 0.04938951 -0.10161621 0.07835741 -0.06704659 -0.08763029 -0.036683187 0.07545839 -0.07238097 0.08818339 0.2267413
현실 -0.07530235 0.112452984 0.077529304 -0.06419951 0.060684614 -0.10159186 0.13598643 -0.05394367 0.061010584 -0.12445766 -0.16122404 0.1568415 0.15778582 -0.102484845 0.06331766 -0.05051062
긴 0.048600253 -0.058594227 -0.18244116 0.0789722 -0.058480557 0.06932755 0.0042204987 0.08131046 -0.15476747 0.06972093 0.02094257 0.15050036 -0.08284045 -0.003827537 -0.13795689 0.19408527
ㅡㅡ 0.08585485 -0.22255018 -0.14739297 0.19996956 -0.18099779 0.15668622 -0.2098367 0.2870714 -0.19218676 0.1520632 0.19980854 -0.21319008 -0.16280925 0.17383912 -0.09635572 -0.0123755075
무슨 0.16751166 -0.17397036 -0.11264094 0.14819807 -0.16059506 0.12957005 -0.11678332 -0.053497665 -0.07474905 0.08200649 0.14956377 -0.096718416 -0.057977993 0.12365542 -0.1548406 0.23067462
내내 0.013962482 0.024455735 0.17044654 -0.037176657 0.04994959 -0.01720785 -0.038334645 -0.17109291 0.03871118 0.021260118 0.04654552 -0.10811237 -0.011143978 0.042664684 -0.011614247 0.17705733
결말 0.030312771 -0.0011133258 0.032637365 -0.008871229 -0.036333725 -0.0920011 0.03781745 0.052920308 -0.11015603 0.04575942 -0.021245552 0.012355298 0.0075175622 -0.044730812 0.0032150708 -0.12670739
죽 0.038783494 -0.004297307 -0.08579646 0.054811586 0.04257678 0.06930206 -0.04842528 0.011166318 0.06309762 -0.013496705 0.07895688 -0.1817341 -0.041408457 0.0516531 0.045441195 -0.03402342
남자 -0.0031347976 0.06285043 -0.053111672 -0.014864074 -0.02385918 0.038503096 0.05273941 -0.0333519 0.071034975 -0.022816034 0.011380174 -0.013630393 0.08581335 0.03751291 0.07139716 -0.005365629
세요 0.05520023 -0.054465987 -0.06583609 0.006398279 0.02816801 -0.009823725 -0.016255481 0.023160318 -0.00070304604 0.0029447372 0.011075423 0.038962066 0.008252654 -0.08937145 -0.11820692 0.06279036
전개 0.09183551 -0.053915665 0.020528361 0.016439497 -0.008523856 0.038291782 -0.11496219 -0.060515523 -0.052267537 -0.010340052 0.02912089 -0.07518972 -0.07957382 0.03223427 -0.10432964 0.12291836
마음 -0.07167949 0.08489358 0.15060039 -0.15479508 0.20860958 -0.15701976 0.15215608 -0.11800006 0.119963884 -0.18289278 -0.13544191 -0.0028526504 0.16639096 -0.09896235 0.13297416 0.08933129
소재 0.03964117 -0.07715503 -0.048245594 0.058980234 -0.0013419222 0.06630998 -0.07064369 -0.037452806 -0.07575683 0.03370529 0.031925987 0.12280874 -0.11118377 0.009422772 -0.16296878 0.14714535
속 0.04916284 0.025239768 0.032396022 0.055619076 -0.06639138 -0.016535057 -0.03133006 0.020083398 -0.07781578 -0.005915931 0.022069048 -0.0032601207 0.09850592 0.04744878 0.057405178 0.009890229
공포 0.00047759403 -0.0068285577 0.07190237 0.016270358 -0.04433966 -0.011815206 -0.0441173 0.024648594 -0.09882583 0.07764679 0.08489339 0.021740612 -0.10917912 0.044551 -0.034305625 0.029568529
아서 -0.02270816 -0.052183505 0.07035502 -0.0011674631 0.009338816 -0.039851632 -0.004535552 -0.10523713 -0.021339443 0.01947675 0.031136021 0.038174614 -0.033336367 -0.029753823 -0.014272459 0.12593254
다른 0.0013139863 0.015548468 -0.010411266 0.044809658 0.0016080979 -0.015199494 0.023032064 0.06882433 0.05454882 0.042831518 -0.03779028 -0.036622018 0.0040275017 -0.014093702 0.07034547 -0.16441487
씨 -0.0057024527 0.021380816 0.019687938 0.07269574 -0.0062700026 0.00019258293 -0.014184643 0.06309096 -0.024464492 0.058911037 0.022313526 -0.03800171 -0.06580261 0.047952652 0.11728582 -0.16238101
인생 -0.08826105 0.100928254 -0.061059177 -0.04430115 0.083243266 -0.111443855 0.21296445 -0.13470864 0.053173725 -0.11830944 -0.21843308 0.105884604 0.050371464 -0.22305322 0.06132081 0.048922114
~~ -0.023461105 -0.009538938 0.092011265 -0.04499165 0.009392117 0.035647426 -0.049155407 -0.10601135 0.02796196 -0.050050918 0.03611647 -0.022299428 0.096356355 0.044655338 0.06244413 0.062454857
짜증 0.20378834 -0.23709132 -0.2018933 0.20037177 -0.18767965 0.24097092 -0.24555244 0.1761629 -0.16894522 0.2017995 0.23134977 -0.28449908 -0.16393864 0.24073625 -0.18410456 0.20186467
짱 -0.12873879 0.20712787 0.15363894 -0.11681615 0.1637072 -0.21655682 0.20570123 -0.14488128 0.2423453 -0.120690465 -0.15838103 -0.004539853 0.17137657 -0.20585203 0.28303635 0.015324527
뿐 0.09738663 -0.11877848 -0.2180345 0.10310648 -0.042486466 0.10294954 -0.06419937 -0.013045341 -0.001418686 0.1188783 0.054808553 0.01153659 -0.06705925 0.050652735 -0.13656452 0.13696045
은데 -0.015854144 0.008855484 -0.11020079 -0.0077174935 -0.03471288 -0.058558453 0.09972862 0.011134345 0.04126418 0.03469015 -0.04703743 0.060963593 0.02816046 -0.09449072 -0.05464101 0.10365055
별 0.07345734 -0.039111286 -0.019294694 0.022764804 -0.06486954 0.023440836 -0.04067356 -0.044413786 -0.063133314 0.039252978 0.10927598 0.015391362 -0.051664006 0.059747152 -0.009479939 0.07350211
아요 -0.008373719 0.06182154 0.037137162 -0.027888777 0.07229147 -0.072209574 0.018430486 0.034473985 0.026816906 0.006882664 -0.027639894 0.004701005 0.028779978 -0.020871395 0.14931281 -0.18136913
유치 0.19587672 -0.15598683 -0.26959267 0.24699865 -0.21050747 0.2731332 -0.15391533 -0.007896771 -0.09463854 0.23717096 0.14979242 -0.15526551 -0.114423715 0.11230076 -0.08347221 0.32800224
가장 0.011855721 0.013954562 0.061326 -0.0042857057 0.03859495 0.03453063 0.011209689 -0.06469273 0.055710755 -0.05882288 -0.0028838688 -0.03691636 0.018775653 -0.058889803 0.026020454 0.095932744
필요 -0.17459893 0.35417974 -0.088759415 -0.12193058 0.1693632 -0.2683409 0.23289058 -0.084554456 0.21530278 -0.13972934 -0.3539001 -0.1774083 0.20706727 -0.30057928 0.44317836 -0.32256702
음악 -0.12773272 0.0853813 -0.04030337 -0.018893344 0.028310476 -0.110555165 0.08887274 -0.018099109 0.029821755 -0.00450326 -0.13118422 0.13257088 0.07888741 -0.120709054 0.026289077 0.011181151
) -0.0084345145 0.032744985 -0.0041433903 0.06473495 -0.034140594 -0.050510574 0.040622342 0.061655466 -0.06836521 0.06214193 -0.011321727 -0.0011704022 -0.0063600256 -0.023932485 -0.049758215 0.041220404
일본 0.04606073 -0.053949326 -0.07925856 0.03004055 -0.0044643553 0.03875096 -0.0426392 0.12120313 -0.010719166 0.0642081 -0.029956223 -0.07972374 -0.08749055 0.022082305 -0.039278783 -0.01900791
낮 -0.163933 0.33531278 0.12774526 -0.14313574 0.16304228 -0.25712168 0.20479636 -0.18658867 0.10015313 -0.24002557 -0.34850854 0.08797167 0.31825766 -0.28713325 0.20968236 -0.16855432
아이 -0.12775275 0.03746708 -0.05223859 -0.06481533 0.10184584 -0.05170999 0.08731862 0.029124424 0.05313974 0.0015208939 -0.04894591 0.0557281 -0.039038185 -0.0055436445 0.0825171 -0.15311036
;; 0.07173478 0.020452602 -0.098005876 0.069740586 -0.033523202 0.06752052 -0.047359247 0.21753918 -0.01771444 0.08808689 0.09653172 -0.09129245 -0.032360457 0.09096793 0.09936219 -0.08981894
오 -0.07772423 -0.02257495 0.058464736 -0.0057812114 0.068248495 0.04566593 -0.00014897776 -0.013481426 0.07382359 -0.07766943 -0.032600947 -0.022325212 0.07518458 -0.04031544 0.08086492 -0.01829779
반전 -0.050402954 -0.01242216 0.025559224 -0.051422793 0.019952677 -0.017589001 0.066233404 -0.111984655 0.006928704 -0.023255238 -0.09583722 0.03785102 0.041360803 -0.045684606 -0.049822856 0.20726407
수준 0.092294306 -0.064384565 -0.17395836 0.120770484 -0.08179644 0.15499976 -0.1144737 0.20395884 -0.08539556 0.1543536 0.14381963 -0.12640852 -0.03449314 0.14230855 -0.09567756 0.08775975
다니 0.032067467 -0.012449167 -0.026977105 0.047825407 -0.04689879 0.0368343 -0.045582313 0.037309356 -0.09678864 0.0350923 -0.028170666 0.053509112 -0.0071049854 0.017169565 0.0017690862 -0.10064298
웃 -0.0831256 0.06629288 -0.052004255 -0.02825536 0.018799946 -0.0999379 0.030407894 0.02887466 -0.002882201 -0.06621894 -0.037357975 0.09622672 0.013109977 -0.012339333 0.01983732 -0.048481066
매력 -0.11674985 0.029394902 0.12858069 -0.11440201 0.12346098 -0.10628085 0.11518081 -0.16846107 0.13694166 -0.13089924 -0.0955224 0.3383689 0.045859978 -0.12204482 -0.20815393 0.2703131
맞 0.0672079 -0.071866766 -0.08964347 0.066608965 0.067724556 0.091331 -0.010072376 -0.07327744 0.08561126 -0.054194383 0.06947689 0.0016419115 -0.06037343 0.060244665 -0.08957129 0.12466912
인지 0.036455907 -0.016850466 -0.052097008 0.08801143 -0.004741188 0.06310797 -0.032476835 -0.0008710554 -0.043548 0.063570544 0.018394077 0.010382432 -0.09177284 0.037003748 -0.022449113 -0.0275009
가슴 -0.19675712 0.14986265 0.19185673 -0.16927457 0.110399656 -0.18156558 0.11895408 -0.18991953 0.07543783 -0.2113564 -0.09414697 0.17737734 0.1658275 -0.13657667 0.04802154 0.013059675
없이 0.06012333 -0.065170705 -0.1885457 0.07531436 -0.1562985 0.062701434 0.0011055475 -0.024222737 -0.022568423 0.08054613 -0.039665192 0.1154232 -0.07059109 -0.016414946 -0.13412125 0.32281274
원작 0.03440697 -0.049414698 -0.09173801 0.10837121 -0.036388285 0.08182844 -0.043842807 0.13236558 -0.13598096 0.10789415 0.08093073 -0.039869342 -0.07990961 0.049553618 -0.10453613 -0.036280997
ㄷ 0.029681945 0.032479256 0.036150426 0.011980597 0.027378654 -0.0284241 0.025381519 -0.02705239 -0.017368022 -0.011164039 0.00036400408 0.087635346 0.033200808 -0.0132676875 0.023437979 -0.056921333
인간 -0.0062804013 0.024208654 -0.03391638 -0.065975174 0.08465903 -0.07529111 0.114286944 -0.022088796 0.096634805 -0.052374322 -0.16619092 0.006391169 0.07333167 -0.10058258 0.11855194 -0.15418631
데 0.00402798 -0.018908992 -7.0725364e-05 0.03645015 0.025904823 -0.049650345 0.026782006 -0.025493244 0.050651643 -0.0050071483 0.011805591 0.098161444 -0.011699934 0.026727304 -0.080844864 0.033865903
굿 -0.19958323 0.19028793 0.19059636 -0.16476564 0.25480917 -0.2202902 0.2055178 -0.22026838 0.295254 -0.23032145 -0.18359523 0.09502113 0.18813376 -0.25027454 0.21696566 0.04902321
ㅠ -0.07199253 0.016068613 -0.014348641 -0.07382859 0.06896829 -0.12739372 0.05448865 -0.024235 0.008863782 -0.068909116 -0.12834843 0.08780919 0.03593039 -0.06619781 0.039067015 -0.12579599
높 0.0619582 -0.14748359 0.023860427 0.11609836 -0.055459656 0.07651695 -0.13445845 -0.067508936 -0.056930535 0.022665083 0.11340396 -0.04210012 -0.050351724 0.06595949 -0.13583265 0.18997882
밋 -0.19617513 0.084902726 0.06037548 -0.19305721 0.20785883 -0.1681402 0.121237926 -0.06942986 0.15459768 -0.16401273 -0.15525502 0.016324494 0.15249375 -0.13751414 0.17234956 -0.17907915
( 0.010605209 0.01680758 0.026192807 0.00024657208 0.02821285 0.00018035877 -0.050787847 0.059850857 -0.032093734 0.00498016 -0.012484207 0.039153364 -0.065334916 0.00858722 -0.038021293 -0.013852731
만드 0.034753427 -0.02968129 0.13481367 -0.0005835965 -0.04611788 0.057964463 -0.06947244 -0.0965717 -0.04982039 -0.036889035 0.123838514 0.07763042 -0.0395738 0.05522226 -0.12354634 0.28149703
급 -0.0057239938 -0.037919022 0.09522334 0.03391778 -0.065727025 0.048327636 -0.0718097 -0.031698737 -0.019858524 0.05315558 0.061206784 -0.018362926 0.0356422 0.077696584 -0.042698536 0.038890492
눈물 -0.09379142 0.19390845 0.17649959 -0.12344078 0.12523301 -0.18817702 0.17919393 -0.25858173 0.17673893 -0.18539241 -0.082325205 0.08288315 0.19325107 -0.15442303 0.24359748 0.112212025
보여 -0.045023296 -0.018611465 0.019845039 0.039831217 0.028574605 -0.009586389 -0.0028598914 -0.021764062 0.0050563044 0.026027353 -0.0156169 0.045914873 -0.054393098 0.04202899 -0.10527326 0.11465676
준 -0.02068093 -0.04172121 0.0015926656 0.025966771 0.043125033 -0.033043735 0.12883855 -0.025920656 -0.081385344 -0.0016166471 -0.027785696 0.20853724 -0.08242328 -0.07585733 -0.20355393 0.096957095
찍 0.14928213 -0.06571945 -0.11773371 0.060734395 -0.054133736 0.10288426 -0.11828601 -0.047800526 0.04610169 0.03364116 0.10597985 -0.09708663 -0.0057574334 0.059237316 -0.011223476 0.18177198
인가 0.031849146 -0.051184803 -0.04657398 0.035815243 0.03086807 -0.00242426 -0.043256354 0.06262853 -0.04452526 0.014253651 0.06672057 0.007223685 -0.015347994 0.009952257 -0.031179653 0.030072257
노 0.31886774 -0.22384231 -0.341263 0.25983846 -0.31833014 0.30064163 -0.24365962 0.43744245 -0.3368859 0.36030558 0.2874491 -0.25232404 -0.3885924 0.24418631 -0.19381195 0.045433845
을까 -0.025672724 -0.044404563 0.08283689 0.032062568 -0.020479636 0.025308864 -0.0041471953 -0.03297736 -0.077552274 -0.031774353 0.008328896 0.08192753 -0.029229186 0.013485497 -0.006432874 0.07838624
용 0.003114706 -0.040149447 0.022443993 0.09004483 -0.077094324 0.051351283 -0.054262605 0.082922526 -0.00075576035 0.05760004 0.057027157 -0.039596792 -0.0037333053 0.045784116 -0.088613346 0.041668534
코미디 -0.0024021415 0.050586604 0.029400479 -0.02375014 0.054040357 0.020971838 -0.086316586 -0.018940026 -0.0011297307 -0.0052612154 0.043332182 0.018827695 -0.022024833 0.06678794 -0.050526474 0.09661251
마 0.04678843 -0.1559213 -0.14257193 0.05886875 -0.103341386 0.08796551 -0.08583618 -0.012789802 -0.04309362 0.05356649 0.027903134 -0.10616923 -0.017711863 0.017860293 -0.08591601 0.1231279
화 0.07339685 -0.05132124 0.027991699 0.014468504 -0.008891429 0.05203527 -0.05137923 -0.017583717 -0.035513572 0.052108053 0.07420173 -0.09742027 -0.045343798 0.039161947 -0.0409663 0.089673296
신 -0.039551515 0.03658002 0.014724746 -0.024007345 0.052008055 -0.09375377 0.049651682 0.046733182 0.048729863 -0.002451596 -0.08290408 -0.011931944 -0.0062868902 -0.0342672 0.056873064 -0.11951695
모든 -0.05709892 0.06505627 0.13783132 -0.045384668 0.06956985 -0.10836195 0.024620516 -0.10405651 0.0023589302 -0.11221469 -0.07497788 0.04387328 0.05800454 -0.09775873 0.026570588 -0.012428685
쓰 0.04862282 -0.09590388 -0.0951358 0.052887578 -0.035117317 0.07987944 -0.0072383215 0.12129512 -0.029224416 0.057426024 0.06334497 -0.0061648395 -0.13923745 0.00795056 -0.1375224 0.092994675
여 0.041732144 0.03719851 0.011481054 0.02573848 -0.053762473 -0.027436873 -0.0342687 -0.06717355 0.043001816 0.03686404 -0.03127046 -0.0412358 -0.035783336 0.026796693 0.060635403 0.019826483
5 -0.08988961 -0.0013195627 0.028851364 -0.02170274 0.06964072 -0.019893296 0.07546366 -0.04748441 0.04884535 -0.0677808 -0.064631425 0.08070354 0.04316548 0.018073779 0.06991321 0.0012959421
아직 -0.10596718 0.009242222 -0.09709825 -0.11046776 0.07004824 -0.06425744 0.13354698 -0.041055284 0.07473777 -0.005020532 -0.15176038 0.12180513 0.06355286 -0.112177126 0.090882815 -0.019755932
추천 -0.10786813 0.15144487 0.25189805 -0.1867548 0.19710833 -0.0921251 0.044444285 -0.15883157 0.14088908 -0.18498008 -0.080490954 0.08380365 0.097042166 -0.035146873 0.091622755 0.06645124
처럼 0.00033906117 0.024655597 0.059572954 0.0154865 -0.041563872 0.0071202647 0.037226897 -0.06209973 -0.0041555846 0.040068667 -0.05637808 0.08483531 0.028734097 -0.108439595 0.069963835 0.12613435
눈 0.110843524 -0.0500315 -0.18281443 0.07680467 -0.12187435 0.028386386 -0.03691688 0.10400231 -0.09673379 0.15220095 0.03534957 -0.033457153 0.014683181 0.03349974 0.0025558781 -0.036792316
아닌 0.09784971 -0.22738679 -0.17772768 0.1825435 -0.1875124 0.023792597 -0.006441598 0.04936621 -0.22255768 0.1491422 0.07579004 0.15566784 -0.2579773 -0.05575584 -0.40166175 0.3185397
자체 0.06300061 0.02384477 0.04647555 0.049275924 -0.0749493 0.0026935867 -0.03259626 -0.137295 -0.011093128 0.07700529 0.101794705 0.023837201 -0.035029214 0.034767535 -0.009545622 0.18806744
울 -0.24554548 0.24996156 0.18908015 -0.16492479 0.22398004 -0.24724065 0.18055154 -0.08570758 0.24180497 -0.21899359 -0.18073098 0.045597516 0.15328808 -0.20813522 0.31375533 -0.14166614
몰입 0.043323826 0.056764666 0.14644147 0.0031453592 0.027999047 0.059248585 0.015107589 -0.20541644 0.17720628 -0.11487444 -0.030451214 -0.04389761 0.1773431 -0.0072989566 0.042322177 0.31986818
4 0.10512247 -0.054938078 -0.17552961 0.03375954 -0.06439965 0.072335415 -0.02674269 0.073680714 -0.068215616 0.1348431 0.022806656 -0.057472717 -0.06503311 0.0030949875 -0.03134705 -0.041077923
대박 -0.1535849 0.120720565 0.14692405 -0.18026839 0.2253052 -0.15290566 0.2170993 -0.24140427 0.13550773 -0.1856837 -0.19495426 0.19564869 0.13452095 -0.15446448 0.025495011 0.08506263
몇 0.043905806 0.08903063 0.101316854 -0.052683223 -0.0027354246 -0.075720295 0.047678776 -0.0654989 -0.019580014 -0.030296007 -0.014139802 -0.022340445 -0.0154461665 0.047894266 0.027781276 0.06346194
스럽 0.060463354 -0.027478667 -0.008357841 0.04827045 -0.10132657 -0.019591745 -0.046337005 -0.11734086 -0.03183497 0.0154156145 -0.013097129 -0.074841954 0.069834925 -0.03869032 0.098770656 0.10127514
실망 0.28343636 -0.217199 -0.36206424 0.3123962 -0.4237124 0.24987373 -0.27955297 0.29614133 -0.29385206 0.4392301 0.32654345 -0.32843626 -0.32275894 0.31929436 -0.18395333 0.12784478
는다 0.011976217 0.09082098 0.17440727 5.6897323e-05 -0.015022989 -0.02847097 -0.07894027 -0.0466548 0.016763585 -0.03607818 0.019670853 -0.13744599 0.05089019 0.05943762 0.16574001 0.04479394
대한 -0.10561884 0.09780244 0.022843964 -0.14194849 0.15950912 -0.06148151 0.116893664 -0.06951368 0.09847388 -0.14808562 -0.043960467 0.050897665 0.049108602 -0.040679093 0.016563583 -0.1311414
죠 -0.035099432 0.05289074 0.054249372 -0.07224001 0.07259735 -0.045365464 0.095760964 -0.096790545 0.10848707 -0.022402195 -0.045319118 0.0923818 0.08635208 -0.10079394 0.06153476 0.0046206326
란 -0.0052444255 0.064910054 0.018935187 0.0095279915 0.05852052 -0.018607546 0.06724816 -0.021427775 0.15703453 -0.078375556 -0.061034583 -0.16983089 0.10787707 0.0153569365 0.1405165 -0.09771779
그런 0.00023602917 -0.04377338 -0.011805104 0.06953273 -0.069425575 -0.025393598 -0.050962426 0.014354367 -0.109810755 0.019083226 0.03675908 0.13098283 -0.032817796 -0.007947452 -0.11569098 0.040045258
솔직히 0.009243795 -0.041707773 -0.055342924 -0.014078594 0.060841225 0.06259676 -0.002044905 0.023104012 -0.031849075 -0.027650697 -0.024125375 0.07388706 -0.04387336 0.0061662975 -0.07705957 0.06312818
캐릭터 -0.011433603 0.013583718 0.08601472 -0.05895373 0.0677106 0.0036759386 0.024166537 -0.083509535 0.017887868 -0.08130265 0.07889867 0.0015694428 -0.038186282 0.0676664 -0.07711588 0.091442645
ㅎ -0.14359188 0.07426269 0.104853936 -0.17240429 0.047536965 -0.09808484 0.04968622 -0.0017774453 -0.040862195 -0.04853126 -0.07036501 0.14068009 0.016822422 -0.07257513 0.12455592 -0.2616608
모두 0.02975659 -0.009834629 0.04323458 -0.03973304 0.01767494 0.02802014 0.07526689 -0.19671689 0.1519536 -0.003460106 -0.11047118 0.11123426 0.0724096 -0.10724278 -0.13145031 0.5470576
아주 -0.028962195 -0.02656138 -0.029113587 -0.020648593 0.10133631 -0.08084937 0.034731355 0.012957638 0.06336101 -0.066600144 -0.05783821 -0.0025423449 0.07649609 -0.090807565 0.039483804 -0.05520498
- 0.040926736 -0.022385001 -0.072248735 0.049848247 -0.026728354 0.011800102 0.04201804 -0.019992582 -0.08365255 0.04751968 0.018474165 0.07796734 -0.039750315 0.048922934 -0.11840238 -0.018838784
가족 -0.027251514 0.05600508 0.028310882 -0.06351062 0.08918929 -0.117412195 0.054722276 -0.08990663 -0.025735306 0.027775245 -0.11066498 0.13385123 0.018170167 -0.08389677 0.01615494 0.11837278
여운 -0.25684112 0.18818866 0.22374485 -0.29358193 0.3173929 -0.22690296 0.28908682 -0.28431293 0.43741354 -0.33642572 -0.27936327 0.067591324 0.27438405 -0.19805253 0.2200039 0.06947301
건지 0.10243121 -0.110052146 0.011477288 0.050868798 -0.052793726 0.043550953 -0.1267309 0.10836539 -0.0551485 0.06489904 0.07871024 -0.067670666 -0.0890344 0.028381545 -0.1522691 0.10279872
전혀 0.10070533 -0.1701084 -0.13531284 0.07611995 -0.07062189 0.0957732 -0.058455274 0.08319476 -0.087632164 0.05034467 0.1445147 -0.094996564 -0.15237388 0.055181764 -0.18562081 0.09724174
연기력 0.0013649806 0.030748103 0.05692493 -0.038647473 -0.018957311 -0.07415055 -0.035242334 -0.06330741 -0.0023310944 0.009049707 0.07097216 0.04644382 -0.045221537 -0.0150665585 -0.045601588 0.103188865
나라 0.041066095 0.05010646 -0.13328362 0.09456983 -0.08422446 -0.010775808 0.055724233 0.10606907 0.056388542 0.02270451 0.008254946 -0.10775027 -0.039916374 -0.042757943 0.06406414 -0.034919653
후 0.0076828864 -0.014405827 -0.10053025 0.0008231967 -0.014651816 -0.026301118 0.0058227666 0.08472928 -0.07733354 0.091323696 -0.039043963 -0.05274798 -0.09218785 0.030566854 -0.03234902 -0.028430944
될 0.06721053 -0.015718421 -0.042330023 0.04234871 -0.05071532 0.046545614 -0.036671225 0.053144444 0.08379656 0.058870252 0.01629 -0.07914964 -0.042814706 -0.038661323 0.0055639707 0.03064997
다면 0.087862186 -0.10591763 -0.13203104 0.067661986 -0.09269758 -0.020227332 -0.049883444 0.2443984 -0.16118638 0.08919252 -0.016781438 0.03820272 -0.110306084 -0.0032244227 -0.04558036 -0.13354602
뭔가 -0.07814059 0.021627903 0.052876327 -0.007889822 -0.009706191 -0.061147902 0.026950222 -0.018290086 -0.014282538 -0.017128894 0.025783308 0.014631046 -0.08409988 -0.015858749 -0.043692425 0.014132864
그래도 -0.0647133 -0.023115719 -0.027025886 -0.082326144 0.08790685 -0.06565141 0.023724144 -0.037221793 0.046022356 -0.07697482 -0.050237294 0.101288565 0.039618954 -0.023121463 0.009944279 0.030972386
; 0.028117612 -0.02103793 -0.11121298 0.046840996 0.029139774 -0.025389832 -0.03824149 0.11013472 -0.015971543 -0.023915192 -0.028706234 -0.011691057 -0.023956591 -0.00024516246 -0.051429067 0.017370664
시리즈 -0.011821347 0.07887058 0.07894414 -0.048936483 0.05630992 -0.04551757 0.008416781 -0.0838604 -0.01576973 0.012219238 -0.047016148 0.2295109 0.023862261 -0.039850507 -0.044221308 -0.0021961925
근데 -0.096744455 0.033070397 -0.02689485 -0.116863206 0.10320849 -0.092438444 0.119284354 -0.04412371 0.14316916 -0.1411406 -0.1612239 0.074605174 -0.003329582 -0.07875815 0.09671255 -0.14493293
작 0.0046580457 -0.01712897 -0.06895572 0.034792554 -0.050147735 0.020264873 -0.059445243 0.0016842406 -0.010031083 0.01532089 -0.03618687 -0.078723006 0.07819636 0.017739233 0.07864312 -0.0952667
표현 -0.07464702 0.04484564 0.14940357 -0.14746793 0.100540645 -0.13274582 0.14886127 -0.22544263 0.12404062 -0.1405283 -0.11440981 0.15834722 0.037953075 -0.09763424 -0.03506227 0.116482414
모습 -0.028586248 -0.0035654423 0.039626632 -0.10083613 0.06978062 -0.087422535 0.09974152 -0.0013167255 0.0038471015 -0.06291045 -0.03208871 0.106882736 -0.05385924 -0.07577291 -0.059410695 0.09674176
공감 -0.0032559584 0.0042198566 0.20021921 -0.09132072 0.12867597 0.016198067 0.06265943 -0.22751912 0.066448465 -0.056199774 -0.013479354 0.1799721 0.023821786 -0.010378896 -0.14627 0.2538621
계속 0.002897572 0.105898604 0.23040073 -0.014741303 0.04228457 0.0013800449 0.04364973 -0.17963824 0.10050322 -0.033696044 0.016298143 -0.088072345 0.14730485 -0.004852545 0.04225615 0.23659576
먹 -0.0014206949 -0.07158512 -0.23724382 0.027216256 -0.0019529795 -0.007922101 -0.03134488 0.17229779 0.057917226 0.071709596 -0.03426464 -0.09501077 -0.01628417 -0.032435887 0.010536187 -0.030720448
"" -0.017946206 -0.09905101 -0.14452878 -0.0046644146 -0.0074567855 0.061606977 -0.008978467 0.050474826 -0.0025561366 0.05855611 -0.033583626 0.08029603 -0.05239542 -0.02628415 -0.16534336 0.13050005
제목 0.060206577 0.00054557587 -0.0147191975 0.114291266 -0.12602715 0.004123885 -0.014144197 0.032218523 -0.046717476 0.113536745 0.0020785206 0.020337353 -0.021219468 0.0021581175 -0.027242651 -0.094250806
7 -0.02186523 -0.023876686 -0.107643396 0.015134372 0.062167533 -0.079767786 0.08014468 0.01857018 0.03234682 -0.05639059 -0.14952797 0.16594249 0.055735696 -0.14836092 0.0037237392 -0.16865024
이랑 -0.00931783 0.012848149 -0.03456575 0.038332313 -0.0425254 0.0561498 -0.0372222 0.031568784 0.047407936 0.02571552 -0.020568127 -0.06400283 -0.095898874 -0.0107480055 0.03680585 -0.017704498
극장 0.087977365 -0.11072828 -0.1325014 0.09760816 -0.029659785 0.07208423 0.010319301 0.044611193 -0.056648377 0.08787903 0.013069206 -0.005535229 -0.029730123 0.05026383 -0.11899252 0.12565207
치 0.02742315 -0.10897435 -0.017396474 0.016470827 -0.015755923 0.04673378 -0.06316759 -0.028650343 -0.06966142 0.015459409 0.07439043 -0.026285708 -0.06758373 0.07256167 -0.07855686 0.15155047
비 0.032002598 0.0026686375 -0.049949687 0.059829567 -0.031082919 0.053248737 -0.08650463 0.1520042 -0.08371402 0.06499319 0.056310844 -0.16994669 -0.028547158 0.09543769 0.03566059 0.0065093567
이걸 0.11284275 -0.11756509 -0.03332339 0.14922644 -0.11883566 0.19932167 -0.11499523 0.09854454 -0.117207624 0.13170278 0.09412491 -0.07460127 -0.028844422 0.15459289 -0.029599894 0.07676201
진 0.00847825 0.02326205 -0.008057597 -0.01798886 0.056416307 -0.057453755 0.08347099 -0.0918493 0.053657778 -0.06572119 -0.057439104 0.11008682 -0.08321198 -0.080171205 -0.12084086 0.22085814
바 0.062518276 -0.0807778 -0.046576645 0.12440386 -0.06450166 0.12564228 -0.18085077 0.13645719 -0.023788502 0.07370293 0.16027023 -0.21178026 -0.07382126 0.14615898 -0.045513976 0.067519784
대사 0.023722118 0.049242634 0.102289736 -0.044755492 -0.011565795 -0.0028034614 -0.027730137 -0.020266889 -0.09073435 -0.016140755 0.045428578 -0.058622137 -0.04862365 0.075299725 0.048205186 0.034289196
부분 0.044834424 -0.07152584 -0.04211375 0.07719592 -0.07201033 0.045453764 -0.035941284 0.054090366 -0.11598739 0.030127168 -0.004375737 0.11065254 -0.08067271 0.03734828 -0.07308247 0.008243672
그렇 0.14024074 -0.086451784 -0.2250862 0.1949947 -0.15585344 0.16909607 -0.09739932 0.012489376 -0.036111616 0.18092038 0.073416874 -0.14810595 0.035029322 0.15746225 -0.07548476 0.17984177
개봉 0.10219531 -0.04820324 -0.024761187 0.09226507 -0.097368225 0.047493126 -0.013992716 0.020624956 -0.0065945466 0.10672911 0.08894749 -0.05569885 -0.010000157 0.037308387 0.03556917 0.055378336
0 0.13150112 -0.20554183 0.09765872 0.11642459 -0.1796364 0.030713331 -0.114293136 0.032998994 -0.3368742 0.17259975 0.2159379 -0.016729876 -0.22605006 0.11058422 -0.33228847 0.15873256
OO 0.049385477 -0.06931906 -0.13903697 0.11259632 -0.11849344 0.09444089 -0.060423765 0.099473804 -0.06038883 0.12223807 0.01608887 -0.0041118967 -0.11282463 0.014643909 -0.105577715 0.113719106
대단 -0.15837629 0.118870005 0.03483863 -0.09082329 0.09089821 -0.099198624 0.1225215 -0.04378875 0.07547311 -0.15032777 -0.08089439 0.10002365 0.11522194 -0.14933445 0.12223311 -0.122801565
어디 -0.0733987 -0.01775153 -0.11000011 0.053895574 0.010227568 0.025620732 0.0026318077 0.10207213 -0.061643165 -0.015502281 -0.005030604 0.103974186 -0.015347987 -0.008792452 -0.057397444 -0.07471093
작가 0.12924792 -0.06087062 -0.0245149 0.12470632 -0.07701715 0.10923927 -0.045167834 -0.17504223 -0.10513822 0.09732723 0.05844861 -0.023909848 -0.0395183 0.09093356 -0.15536955 0.26764727
된다 -0.05240191 0.069681816 0.100794256 -0.018121423 0.08964245 -0.023992088 -0.009952655 -0.11533608 0.075556606 -0.12503214 0.00018067377 -0.043411717 0.15881976 0.01734822 0.14209709 -0.042639222
아쉽 -0.007969713 -0.09497592 -0.21290113 0.03080974 -0.04463638 -0.10284903 0.08997256 0.1871134 -0.20242712 0.072774604 -0.13324416 0.084348306 -0.06471036 -0.033149026 -0.087000854 -0.37165898
기분 -0.00027552975 -0.040257767 0.07051739 0.054124203 -0.03900896 0.031484023 -0.051188488 -0.032832306 -0.09024212 0.049701016 0.06667333 -0.042021144 -0.05228122 0.013401722 -0.066743866 0.028178452
제 -0.02278488 0.025586762 -0.083704166 -0.018511526 -0.0024610714 -0.059876394 0.112162605 0.040917058 0.05243733 0.0401732 -0.063404456 0.052471858 -0.043696675 -0.10918909 -0.028006572 0.08159423
진심 0.04768543 -0.069064066 -0.0101748 -0.002097039 -0.036096413 -0.03925675 0.01835824 -0.18381551 -0.037782986 -0.029516755 0.039666012 0.12516843 0.05237156 -0.010317549 -0.10955669 0.32286742
타임 0.09409607 -0.02527992 -0.088605136 0.05320852 -0.0113465255 0.04158901 -0.039878678 0.06496853 0.06311921 0.034951244 0.020325856 -0.026745671 -0.062174454 0.02319231 -0.03945155 -0.050145857
/ -0.016659683 0.014844257 -0.023922252 -0.019246595 -0.014668921 -0.01972498 -0.06969469 -0.01244496 -0.105643794 0.008762602 0.07364756 -0.010943408 -0.005477413 0.010546443 -0.08039991 -0.06870412
웃기 -0.17859365 0.037075352 0.08808093 -0.14103158 0.091147766 -0.09330924 -0.022924144 -0.041351005 0.08626875 -0.1080503 0.049370576 -0.036624406 0.022825148 -0.002051251 0.012588588 -0.11200487
보이 0.025261907 0.08960057 0.09672955 0.028600993 0.009053106 0.0031511122 -0.01742241 -0.08423629 0.13504346 -0.009284112 0.016478702 0.011450626 -0.02932277 0.0025856532 -0.009564176 0.13620235
놓 0.06346213 -0.061772104 -0.15580772 0.10779891 -0.17467111 0.027070547 -0.063755915 0.119788714 -0.14127003 0.093989514 0.0714838 0.017375236 -0.06395331 0.027987054 -0.10415501 0.05215219
해도 0.03616234 -0.1309302 -0.0374643 0.020161346 0.045560166 0.033711854 -0.003282375 -0.04518085 0.05001855 -0.013552136 -0.01263502 0.124267206 -0.15203854 0.000102717284 -0.2833155 0.24068227
이제 0.084483534 -0.034314103 -0.06484691 0.044849455 -0.050899554 -0.0056963367 -0.06695176 0.052938577 -0.10123395 0.09512267 0.073916025 0.05350029 -0.13941926 0.04077558 -0.16313201 0.006231662
물 0.022828408 -0.020038908 -0.007385564 0.010241814 -0.032892723 0.05733466 0.015544091 0.0676526 -0.02238213 0.011378298 0.052783865 0.06989417 -0.052291825 -0.015522482 -0.080283254 0.052837122
봐야 -0.108442105 0.07481126 0.1005109 -0.069567256 0.1000151 -0.13205783 0.08703216 -0.12627594 0.0813484 -0.08589822 -0.049153373 0.123010695 0.11960528 -0.08033795 0.042394213 -0.15329944
막장 0.15928109 -0.10697403 -0.23230173 0.21915741 -0.19306734 0.22770093 -0.1335074 0.04353261 -0.13717926 0.17803793 0.15920845 -0.18986566 -0.07584243 0.1828651 -0.13501802 0.13622546
삶 -0.13227947 0.056982737 0.13171291 -0.16149394 0.21107607 -0.21245854 0.16736679 -0.13364291 0.044758335 -0.14490488 -0.1677103 0.33921167 0.05370598 -0.23771317 -0.014473031 0.14957207
친구 -0.074662924 0.023021948 -0.019507106 -0.018435301 0.08272936 -0.06809142 0.04315267 0.06527903 -0.064685434 -0.011392832 0.061079174 0.067486666 -0.090025365 -0.048893638 -0.13104247 -0.02168895
잔잔 0.007460625 0.021386238 -0.0065705045 -0.042848174 0.052195452 0.0028795537 0.0468511 -0.16129936 0.12387087 -0.011903448 -0.07384984 -0.06548507 0.09481308 -0.040565167 0.05454512 0.2586352
조금 0.011219943 0.09878512 -0.13070914 0.059020463 -0.08022888 0.00022783192 0.04201657 0.14591883 0.027313797 0.09131606 -0.084775046 0.0137394685 0.017316712 -0.023392664 0.15565021 -0.2184275
씬 -0.009171626 -0.018794578 0.14341071 -0.10333081 0.12635793 0.013557157 0.056401107 -0.015692102 -0.045036763 -0.09545519 -0.007893461 0.050486628 0.022462275 -0.042858135 -0.015400751 0.16811737
딱 0.009275796 -0.025005361 -0.10867263 0.066532195 0.022664255 0.07090506 -0.009368639 0.062501505 -0.006408473 0.01069321 0.07666284 -0.017459357 -0.11203411 0.020374555 -0.11147031 0.041259874
영상 0.01141419 -0.007973795 0.08455966 -0.028951757 0.03869082 -0.042205982 -0.03479427 -0.15857059 -0.039841566 0.010189877 0.046545584 0.046371397 -0.056143403 0.03885391 -0.05307106 0.1849353
억지 0.16850187 -0.21679989 -0.18706384 0.17597838 -0.24810351 0.14751531 -0.14942941 0.16607955 -0.31351167 0.1927332 0.2105527 -0.035942677 -0.23185354 0.116101295 -0.2603691 0.18752216
찾 0.039592467 0.0049530515 0.07479701 0.021957012 0.03300564 -0.011875951 0.04776912 -0.03559752 -0.026111659 0.03537019 -0.033346225 0.0856645 -0.09758599 0.014447081 -0.03899862 0.053426754
요즘 -0.07909054 0.135283 0.050186362 -0.09994953 0.1047963 -0.08829172 0.20223846 -0.15531076 0.17679012 -0.06895627 -0.18761908 -0.056391645 0.1824627 -0.12930357 0.14652075 -0.08855918
같이 -0.04297176 0.015102382 -0.024908617 0.06618191 0.0015285002 0.07470938 -0.037691068 0.07172952 0.064055294 -0.00929633 -0.017310949 -0.009566529 -0.07327775 -0.018010119 -0.01410969 0.090626344
중간 0.09964628 -0.06874436 -0.105327494 0.13070588 -0.15504684 0.09403504 0.017880602 0.0042757993 -0.0794328 0.117395446 0.078841396 0.03594293 -0.024558747 -0.0013949298 -0.04843896 0.0585593
" -0.012837806 -0.012263378 0.12609395 0.000612564 0.0008378322 0.020124724 -0.004583477 -0.078515254 -0.016836163 -0.0026520863 0.037562005 0.07992679 0.027763274 0.044963036 -0.018504884 -0.035611317
구 -0.024973484 0.0945557 0.108248085 -0.0009170573 0.02017267 -0.068555556 0.07287561 -0.060076434 0.060241245 -0.08390838 -0.0009989335 -0.09060872 0.109080985 -0.031289138 0.16946585 -0.077826194
라도 -0.0087950295 -0.017511155 0.1285558 0.03353154 0.0011259035 0.06416917 -0.0647196 -0.10858456 -0.0044316077 -0.018681504 0.002252263 0.0800522 -0.00018896355 0.026824161 -0.061118476 0.14690475
스릴러 -0.012054539 -0.034263708 0.2142936 -0.030907564 0.0013457815 -0.040466677 -0.024623306 -0.12135665 -0.10002829 -0.0159034 0.003952664 0.041405573 0.06114402 0.054155365 -0.11576131 0.0393801
가지 0.011810915 0.055622596 -0.05174643 0.022990515 0.027781693 -0.009979757 -0.0025393171 0.035874143 0.051173244 -0.040468182 0.018542206 -0.06436249 0.016652875 0.02030956 0.010684575 -0.021092856
8 -0.1199636 0.033615854 -0.12500629 -0.06752724 0.09981536 -0.07970823 0.16850665 -0.023573551 0.13042104 -0.10017674 -0.21306959 0.12601395 0.08690244 -0.17616074 0.004320021 -0.06724267
믿 -0.15253353 0.08394104 0.09441692 -0.14377423 0.11733173 -0.07611293 0.0834712 -0.09966682 0.0937579 -0.14821437 -0.09283257 0.09647366 0.055138312 0.007356895 0.06792512 0.02228523
싫 0.17957549 -0.16607597 -0.25391886 0.14591376 -0.23143223 0.17339209 -0.12881434 0.20803764 -0.11032067 0.16776828 0.10948226 -0.10176162 -0.07928106 0.091104805 -0.15519886 0.13618152
.... 0.056746554 -0.06962138 0.07661071 0.048190534 -0.034224357 0.035217997 -0.053391993 -0.040266767 -0.12930356 0.049659852 0.15369347 -0.051599905 -0.03572834 0.11978647 -0.13509536 0.17196496
나왔 -0.047822107 0.043514293 0.07777278 0.009582514 -0.05627235 -0.021574173 -0.02069187 -0.02643605 0.03190958 0.039963078 0.03308599 -0.0009247511 0.016517315 0.011381307 0.053911842 -0.032764208
아까운 0.13866003 -0.12284012 0.009292202 0.19646873 -0.11338205 0.1846016 -0.13679944 -0.25350946 -0.05005645 0.09870001 0.19160168 -0.14512743 0.03199182 0.13504826 -0.12569048 0.33393076
긴장감 -0.030282056 -0.016792243 0.19655816 -0.08877496 0.08028086 -0.06783601 0.06905292 -0.34913674 0.05342949 -0.11944126 -0.029228048 0.22923404 0.058432084 -0.05185571 -0.1998228 0.430944
점수 -0.05474885 -0.022491071 -0.04930765 -0.0032699269 -0.03149933 -0.06470803 0.02540378 0.11545701 -0.0017770596 0.033685796 -0.029553877 0.10941456 -0.121617794 0.0032464166 -0.04438214 -0.03261102
개인 0.019010818 -0.0076582395 -0.04521582 -0.00856981 0.02803253 -0.0003399416 -0.014519604 -0.0063627614 -0.020895457 0.050434392 0.052473083 0.025141869 0.0028645773 0.05402693 -0.03401145 0.19404279
제대로 -0.088936515 0.005866643 0.008483658 -0.073367566 0.05223002 -0.04970403 0.11287289 -0.19979234 0.07152805 -0.1623927 -0.042135786 0.19104153 -0.025045779 -0.15948102 -0.15167995 0.1585651
부족 0.0588954 -0.12719527 -0.14594334 0.08201288 -0.15204424 0.12228917 -0.122037716 0.1734691 -0.11741599 0.13489126 0.14948146 -0.033936176 -0.14118154 0.13879493 -0.0114729535 0.089791
이유 0.03600967 -0.027204117 0.049570672 0.074266 -0.055058323 0.022804081 -0.12151531 0.071601264 -0.043868396 0.04372424 0.09549775 -0.04299288 -0.14916469 0.08773975 0.015094594 -0.055881884
노래 0.08391975 -0.023232073 0.002800311 0.034871202 -0.014440479 -0.030674241 0.047748543 -0.022778189 0.0013421028 0.047755178 -0.011693846 0.046359576 0.01997611 -0.00988338 -0.0046850354 0.03761927
만큼 -0.0022292645 -0.06770049 -0.030711638 -0.051710654 0.013161675 0.028602276 0.079494625 -0.14821176 0.10544723 -0.040762387 -0.06711508 0.1750586 0.047596473 -0.11198369 -0.14285764 0.25826594
라면 0.07125422 0.029814389 0.057619806 -0.017918821 0.026822694 -0.029441483 0.028550321 0.0073498753 0.024702227 -0.003047278 0.033677686 -0.03356238 -0.001393385 -0.023699068 0.031485833 -0.011416496
시작 0.02668517 0.009403604 0.080470264 -0.0128308805 -0.04761935 9.451683e-05 -0.07049842 0.016586099 -0.017897038 0.044275332 0.002468587 0.019783162 0.035083286 -0.014099341 0.056966037 -0.00097013335
구나 0.08739354 -0.023270587 0.016817397 0.077376656 -0.05044867 0.02725 0.004352802 -0.02834572 0.098190084 0.021127364 0.062957644 -0.01118346 -0.0067610703 0.0069293357 -0.02029855 0.12133984
잇 -0.059159756 0.10379354 0.042655807 -0.051471043 0.084577195 -0.058288172 0.0144358035 -0.08743999 0.16562763 -0.045940086 -0.07426426 0.0008849029 0.028185675 -0.028658798 0.10859448 0.07324543
특히 0.027671505 0.149813 0.26034585 -0.05079866 0.020759854 -0.021183252 -0.0024489325 -0.12941287 0.14713965 -0.11071835 -0.038154624 -0.09177961 0.21787214 -0.061474092 0.19522078 0.006934754
한테 -0.043288622 -0.08565742 -0.0021595678 0.033689324 -0.0021398538 -0.008900436 -0.0020448796 -0.030054023 0.024964511 -0.048955873 0.0005647617 0.05434422 -0.008380458 -0.034206532 -0.122649334 0.102042675
날 0.053081002 -0.019846214 -0.026583461 -0.010209366 -0.068173744 -0.012289039 0.0758523 -0.00054464996 0.032571338 0.031414796 -0.09752147 -0.011765205 0.01121381 -0.118773736 0.0025605601 0.025490355
려고 0.097414866 -0.19572154 -0.08997782 0.16209327 -0.10136126 0.11202685 -0.041714646 -0.040034067 -0.092410795 0.08222691 0.12360251 0.11250146 -0.07824079 0.058470067 -0.2292126 0.2543551
제일 -0.014326394 0.010159242 0.075996146 -0.008293295 0.05020893 -0.02018493 0.03853936 -0.0724154 0.009539007 -0.04767814 -0.03626178 0.028493172 -0.028616965 0.0009649245 -0.08755987 0.1694681
아름다운 -0.14402735 0.10844542 0.16645266 -0.18230192 0.12510058 -0.16790149 0.1235722 -0.20600846 0.19886175 -0.17570768 -0.1717966 0.12364059 0.16227773 -0.1604097 0.030635556 0.1350091
시대 -0.0063138134 -0.010314308 -0.03461499 -0.06833829 0.044716496 0.0060089836 0.10949174 -0.0917914 0.06381998 0.022229971 -0.03804666 0.11615553 -0.029722879 -0.09049763 -0.02825484 0.1464974
ㅜㅜ -0.04211976 0.10504855 0.12918508 -0.05701632 0.01962749 -0.018972846 -0.009617487 -0.052514736 0.038112305 -0.051343534 0.06172426 -0.0026556817 0.07597391 0.019532176 0.23426515 -0.27822953
어떻게 0.0018506282 0.0044428953 -0.08338644 -0.010788286 0.08863094 -0.01938506 0.063073084 0.13894024 -0.012436398 0.050608974 -0.016918909 -0.014304418 -0.09369648 -0.05919175 -0.06325848 -0.13899253
엔딩 -0.045424256 0.06459663 0.051724713 -0.047441512 -0.012412195 -0.07767027 0.014284624 0.06596454 -0.0024490948 -0.02835905 -0.09590333 -0.03477401 -0.017824445 -0.030787231 0.12826924 -0.16401976
당시 -0.106336445 0.089007735 0.04030487 -0.0121146105 0.07093533 0.08237002 -0.012740415 0.05309842 0.032870665 -0.052471325 0.046759605 -0.033530887 0.018359482 0.05550856 0.044578988 -0.10391248
하지만 -0.009187437 -0.10631017 -0.20864505 -0.045157462 -0.029932922 -0.061893083 0.031812362 0.036583856 -0.023511231 0.024271443 -0.09827714 0.22883677 -0.063372575 -0.08840535 -0.110552624 0.07075059
나름 -0.08670889 0.057721402 -0.0003325722 -0.06355568 0.04127357 -0.034263812 -0.0070764204 -0.034696657 0.01602894 -0.055353355 0.00080410717 -0.0044621686 0.046095498 0.009198588 0.08488418 -0.12350438
봐 -0.026992189 -0.037807003 0.09394131 0.019614644 0.03784494 0.053080063 -0.059183992 -0.0013244683 0.081939265 -0.08479697 0.021058703 -0.14224325 0.05899314 0.082138464 0.049354978 -0.034006197
무섭 -0.12865357 0.019938359 0.13403928 -0.054169435 0.13499567 -0.039049454 0.04828006 0.053279743 0.11386858 -0.10143105 0.01646158 0.013972201 -0.024890896 -0.05497447 -0.044034556 -0.0277288
나온 0.0890295 0.08272886 0.045793317 0.09873495 -0.05054087 0.016502239 -0.035198633 -0.06729817 0.1431798 0.04779837 -0.043002475 -0.15782265 0.09533063 0.010889634 0.0700817 0.11495716
명 0.091463916 -0.00079157593 -0.074238636 0.08788701 -0.053735793 0.05142393 -0.0075874543 -0.050777953 0.037534207 0.05360304 0.02523139 0.043146726 0.004240163 -0.01786598 -0.057571188 0.19603923
사 -0.025144791 0.060420454 0.051456567 -0.029357333 0.0023981691 -0.053135127 0.07845338 -0.1313356 0.13887216 -0.10971469 -0.11252677 0.1343961 0.07950802 -0.05800989 -0.025009854 -0.003023978
니까 -0.054935966 0.004729239 -0.037873514 -0.077880874 0.09243692 -0.09047681 0.1347973 -0.04033867 0.042971116 -0.060729235 -0.08120863 0.19610935 0.037546787 -0.073531635 -0.0805805 -0.0033535813
오랜만 0.0685931 0.08841171 0.046030127 -0.03189622 0.098646015 0.015467042 0.06375943 -0.24914923 0.12578169 -0.044520214 -0.06914238 -0.07296493 0.07309374 -0.109489664 0.013781731 0.3857923
이것 0.009931313 -0.041121278 0.09302782 -0.030745229 0.046475127 0.028225787 -0.0756103 -0.07811536 0.015778929 -0.008976738 0.058288906 -0.01660385 -0.01369401 0.058392063 -0.040626563 0.21057944
해요 -0.118535094 0.18423001 0.19254589 -0.17794405 0.09346079 -0.06048768 0.035350047 -0.010260493 0.09952894 -0.07789658 -0.036648784 -0.0765271 0.054415185 -0.010197673 0.24678227 -0.28746673
9 -0.21164593 0.043938648 0.1371301 -0.19794361 0.24089745 -0.22470906 0.18521899 -0.11773453 0.12898894 -0.16037954 -0.20916283 0.40807065 0.09380664 -0.1724577 -0.07272749 -0.081874415
팬 -0.026209356 -0.023736099 0.10430493 -0.016197234 0.008865726 -0.08837184 0.0033631935 -0.0484869 -0.04918651 -0.029091975 0.019926896 0.101851024 -0.008571459 -0.02051992 -0.06847805 0.07241485
차라리 0.27684915 -0.30060542 -0.14787497 0.28223917 -0.3186871 0.33973792 -0.388939 0.33213446 -0.3231366 0.28481963 0.40681508 -0.5319474 -0.28781208 0.45020863 -0.16872928 0.1361
절대 0.122870944 -0.018713528 -0.08311965 0.076407425 -0.08899695 0.12524682 -0.039510526 -0.096030496 0.079915814 -0.017758803 0.062012088 -0.098447606 0.043474898 0.009260882 -0.036687568 0.12920298
세상 -0.059130315 0.04934825 0.044776585 -0.03968049 0.03809902 -0.06760635 0.021305284 -0.106928416 0.0313517 -0.047611263 -0.047411483 -0.01402774 0.14415789 -0.061827015 0.15144277 -0.016222602
세 0.0074557634 -0.0027438942 -0.1075369 0.03154878 -0.10331981 -0.025924928 0.0548572 -0.008485926 0.01610845 0.01611105 -0.019923737 0.09158108 0.014533072 -0.073872745 -0.017534208 0.14649642
못하 0.14318882 -0.071706995 -0.23297648 0.18191966 -0.17355826 0.12393397 -0.11807115 0.16085312 -0.08459583 0.19458365 0.1278146 -0.1422164 -0.028063677 0.12448597 -0.071857005 0.0074948724
의미 -0.009181697 -0.04895062 -0.01880166 0.013947934 -0.05242437 0.004855666 0.09035518 -0.05877263 0.06318774 0.0064019067 -0.012328497 0.06677985 -0.048802268 -0.080726005 -0.1064435 0.17613505
던데 0.011123035 0.13168025 0.044674102 -0.04994726 0.020681566 -0.06506738 0.0024791812 0.032871924 0.02075405 -0.010748643 -0.059895523 -0.14403829 0.11994964 -0.07750776 0.3257131 -0.268431
봄 0.049855866 0.026838727 0.05681397 -0.026742805 0.051137157 -0.02219159 -0.047510892 -0.14005814 0.08330243 -0.050630223 0.008675033 -0.065533586 0.07323577 0.029684832 0.03600018 0.16738026
욕 0.13491353 -0.10228789 -0.24552418 0.21061236 -0.21809499 0.17299359 -0.15808947 0.13489957 0.009419301 0.21789218 0.113658674 -0.37833935 -0.048530947 0.12571 -0.0006949528 0.09754905
훌륭 -0.061422616 0.06952111 0.2080157 -0.11846468 0.11272509 -0.11510465 0.17604783 -0.2138816 0.035830263 -0.117920816 -0.13428152 0.24205475 0.1651883 -0.14593561 -0.09528181 0.21809855
너무나 -0.015663797 -0.01957172 0.18901871 -0.07110031 0.08576995 -0.06588097 0.09431617 -0.24277157 -0.05501547 -0.114472434 -0.013192494 0.20111245 0.06531721 -0.057922516 -0.16654399 0.3492806
강추 -0.1623919 0.11700143 0.1658196 -0.18358885 0.1629195 -0.16027279 0.1872742 -0.17431144 0.20907563 -0.20789024 -0.1506322 0.089922875 0.19600837 -0.22144623 0.010059321 0.030094557
감 0.029532988 -0.032904904 0.0010136949 -0.026717963 -0.014825337 -0.059187893 0.062113717 -0.067418754 -0.022780094 -0.03174468 0.04464197 0.024805285 -0.014444361 0.03844408 -0.0549666 0.09037139
됨 -0.019433068 0.13815676 0.122368254 -0.10378637 0.04477053 -0.0018258648 0.008560015 -0.0012662533 0.099435456 -0.053181082 0.01598554 0.008476542 0.1383058 -0.00083941885 0.14677615 -0.14159723
ㅡ 0.089856975 -0.016600754 0.038096562 0.030335644 -0.010617116 0.05783953 -0.044832177 0.02548586 -0.08923275 0.021444064 0.07955206 -0.008470091 -0.13143474 0.07948453 -0.057605915 0.08308407
따뜻 -0.22219554 0.09975196 0.2244309 -0.17918117 0.19687274 -0.16188799 0.18746045 -0.20149076 0.12657858 -0.20362322 -0.17536542 0.27771318 0.15352358 -0.13878758 0.0017515797 0.13773863
빼 0.09361046 -0.12083951 -0.048720043 0.026589327 -0.027446227 0.006284118 -0.033824198 0.029584393 -0.12088507 0.011851063 0.015922122 0.15009691 -0.25635827 -0.008078458 -0.31505322 0.21131314
느끼 -0.03153949 0.04742927 0.013288888 -0.07080733 0.034610324 -0.10334346 0.11834654 -0.12090643 0.09998272 -0.0587296 -0.18788728 0.06093315 0.085343204 -0.15347688 0.024061402 0.14176482
해야 0.041894972 -0.023755254 -0.068498015 -0.018952152 0.036235977 -0.04571726 0.016118785 -0.018969677 0.1265654 -0.03404629 -0.10381286 0.04904408 0.02349823 -0.045691904 0.034205083 0.034779016
드 -0.00016437047 0.032250516 0.11759019 -0.037383378 0.038247187 0.023152594 -0.10394444 -0.0006162651 -0.04200535 0.035303384 0.1980835 -0.13828863 -0.037590463 0.11135129 0.073910624 -0.04899725
도대체 0.07796136 -0.10045792 -0.09579905 0.11261431 -0.10172308 0.07049655 -0.11603021 0.080984466 -0.07429493 0.08365242 0.12768613 -0.0066269464 -0.106572576 0.07731953 -0.18920217 0.13420442
어야 0.017843908 -0.06303359 -0.027335752 0.05406629 -0.034129106 0.049594607 -0.02412484 0.037240252 -0.029156685 0.057024293 0.056605287 -0.03788305 -0.16865584 0.08969938 -0.024136707 0.14753696
답답 0.12996376 -0.16648525 -0.046858132 0.14142497 -0.16711216 0.14056952 -0.10865515 0.05536448 -0.23961452 0.10218667 0.1178932 -0.05294209 -0.16874541 0.100041084 -0.18919262 0.13959347
마다 -0.05176151 0.06346146 0.06337345 -0.009268069 0.052637763 -0.09317853 0.08666485 -0.16404733 0.040716775 -0.04437812 -0.046918523 0.08571065 0.017742837 -0.07279378 -0.09828255 0.2424303
준다 -0.011410863 0.015332963 0.15831302 0.04246181 0.029823404 0.09608465 -0.09983568 -0.06948746 0.13264905 0.0077105374 0.15205558 -0.2739715 0.3408999 0.13836017 0.38010937 -0.15485498
글 0.05917063 -0.06841145 -0.070676565 0.0065760855 -0.0220952 -0.0048993276 0.017538862 0.080273755 -0.07889432 0.017042631 -0.0051581813 0.036032837 -0.12508029 -0.061742246 -0.18567547 0.098005466
전쟁 -0.03151385 0.050697412 -0.054269593 0.031363294 0.0005450534 0.004974557 -0.005347662 0.06648172 0.08242091 -0.008641273 -0.04149364 0.011096701 0.045056537 -0.0991041 0.052089926 -0.063159265
놈 -0.0031555532 -0.11588268 -0.19521393 0.016600348 0.020559322 -0.015396304 0.058749482 0.05241997 -0.16384897 -0.003392346 -0.0559834 0.16368265 -0.2264664 -0.017233657 -0.27924466 0.022439891
설정 0.08950136 -0.077036984 0.08616958 0.035857394 -0.010658185 0.057590757 -0.09726525 -0.13123786 -0.050334774 0.023119332 0.049195036 -0.02060743 -0.0863933 0.0813802 -0.22141026 0.26986045
무엇 -0.061505605 0.10577744 0.25510374 -0.09667126 0.00050612073 -0.01140403 -0.018318336 -0.077714376 0.113924675 -0.059297215 0.05042459 -0.12698841 -0.005063216 0.04979058 0.06735342 -0.091934144
수작 -0.34824422 0.3029206 0.30506968 -0.3317838 0.33164993 -0.24582747 0.33235994 -0.33095562 0.28629074 -0.3543425 -0.28570694 0.30262986 0.32397375 -0.2914823 0.07623675 0.13656189
만화 -0.024180878 -0.102548026 -0.07415788 0.05917885 0.06327629 0.034403767 -0.055648714 0.1316421 0.031922106 -0.00028218483 0.0016500015 -0.08827794 -0.075320855 0.0888536 -0.014696675 -0.031304784
흥미 0.003719003 -0.065100946 0.11810048 0.009215683 0.016838294 0.033053577 0.026665302 -0.13927308 0.1265372 -0.029252632 0.037571464 0.022376481 0.0803929 -0.004296526 -0.13276576 0.5104915
그저 0.054512512 -0.118211076 -0.072590895 0.124817036 -0.17174767 0.04859344 -0.086182736 0.055459104 -0.095244266 0.077208005 0.07360006 -0.08952603 0.0071760705 0.13067746 -0.057923917 0.060503364
감정 -0.033653088 0.10907603 0.1572739 -0.086508475 0.086923055 -0.093557894 0.0984314 -0.14967993 0.12093159 -0.077931456 -0.035720803 0.10268733 0.09828139 -0.12822016 0.0033171275 0.071967326
미국 0.029745605 0.007729392 -0.16257398 0.034338377 -0.09875782 0.07693542 -0.06865948 0.16691045 0.0699728 0.09673354 -0.029449603 -0.09253396 0.018684601 -0.024145294 0.16202606 -0.16600065
신선 -0.11136947 0.14182995 0.118022 -0.16619514 0.10137943 -0.08662254 0.13373424 -0.19392678 0.16445065 -0.15271857 -0.11434123 0.123738185 0.09853551 -0.08059902 0.020163126 0.088807404
행복 -0.20838338 0.17983499 0.11791729 -0.24258971 0.22592252 -0.2146639 0.20977922 -0.12747411 0.17357263 -0.18454005 -0.18072203 0.24070638 0.12320266 -0.22991885 0.07920354 -0.09246955
뻔 0.0983597 -0.15140373 -0.16830476 0.119564645 -0.064081565 0.119891115 -0.10764583 0.08888393 -0.14291239 0.09013941 0.021813901 0.01592963 -0.08378267 0.01652441 -0.13316737 0.09086145
형 -0.053723924 0.028645784 0.09253977 -0.11109232 0.07850364 -0.091288134 0.041483417 -0.07363053 -0.039545838 -0.10031947 -0.02801878 0.16959918 -0.047462564 -0.067379706 -0.035415336 -0.046862777
앞 -0.08381842 0.01716082 0.13656685 -0.103604056 0.03267808 -0.089357324 0.11233011 -0.06898108 -0.025789382 -0.077158086 -0.08616626 0.19424914 -0.02497229 -0.11316294 -0.109285094 -0.02270627
허접 0.21924429 -0.171943 -0.18963073 0.2016854 -0.272607 0.25316265 -0.1986553 0.12788439 -0.18078935 0.1917153 0.2792322 -0.24482471 -0.17575513 0.23803419 -0.23766264 0.24077174
어도 -0.015443597 -0.014418197 0.017926767 -0.016673248 0.01744735 0.027365202 0.07095499 -0.043617703 0.07427447 -0.026921265 -0.04218954 0.12972566 0.0048612305 -0.050564416 -0.11884725 0.17545617
군 0.062281743 -0.036506046 -0.14171107 0.038809866 -0.03113105 -0.018105268 -0.057382613 0.10803736 -0.106501035 0.0532446 0.008953512 -0.008957414 -0.03947352 -0.032639597 -0.08863762 0.037916027
시절 -0.0329743 0.023357939 0.1259017 -0.02019359 0.046840046 -0.02107784 -0.04562456 -0.12951088 0.061615057 0.0070351902 0.049075797 -0.10326782 0.0141909225 -0.02952115 0.0888764 0.115102984
관객 0.080739334 -0.123311825 -0.1705789 0.11635934 -0.115649074 0.09697309 -0.11976419 0.18193932 -0.13637981 0.16550276 0.15531074 -0.12873748 -0.14758296 0.08340956 -0.12344379 0.03543612
배경 -0.004250072 -0.021530539 0.0020223917 -0.021219831 -0.028360521 -0.07460649 0.0039708507 -0.06246232 0.033353597 -0.026731601 -0.04585994 0.13385026 -0.0014507691 -0.07100377 -0.025262065 0.048003595
6 -0.07780732 -0.0029957555 -0.097349286 -0.018982556 -0.02396116 -0.10788669 0.08665591 0.13660747 0.008098963 -0.0032504674 -0.123062596 0.107017875 0.010580876 -0.036903165 -0.015842024 -0.17425896
초반 0.042076897 -0.10861571 -0.17521721 0.1154615 -0.15008338 0.065287024 -0.057710536 0.20620938 -0.08659452 0.16910742 0.004165066 -0.057613548 -0.07437579 0.016768955 0.017908735 -0.11288607
사실 -0.070034735 0.07693032 0.07123108 -0.10379032 0.10468315 -0.06444107 0.13493015 -0.13318758 0.2348308 -0.088557296 -0.078152 -0.01196956 0.1006874 -0.08328088 0.12802629 0.11069927
웃음 -0.03222113 -0.061450507 0.012402122 0.03906163 0.087671004 -0.024560086 0.028683888 -0.16245757 0.04861078 -0.028781818 -0.0033034475 0.044828244 0.08325492 -0.037770096 -0.07256078 0.25997838
답 -0.009399222 0.09620687 0.18271051 0.025411742 -0.012792311 0.048447613 -0.047428742 -0.18830013 0.0010982075 -0.058128834 0.033263378 0.03656529 0.049686827 0.005540407 0.00022339512 0.11039867
엄청 -0.0038131264 -0.034701463 0.06900508 -0.02277481 0.004011069 0.07102877 -0.0065058577 -0.22692554 0.070412956 -0.08696487 0.06023315 -0.032581545 0.04399464 0.039503027 0.014470449 0.28376672
더라 -0.01714771 0.011174305 0.03724622 -0.027854523 0.0045123636 -0.021832826 0.045381 0.000714297 0.03102791 -0.06310267 0.021514447 -0.055752423 0.011642104 -0.0009123524 0.064636305 -0.016950613
라니 -0.062047753 -0.008064186 0.004624367 0.0037585169 0.017765803 -0.0329842 0.02932174 0.01280757 -0.015356822 -0.024440637 -0.1415372 0.03961177 -0.026950153 -0.12013607 0.057562187 -0.14732006
질 0.06962131 -0.13414906 -0.14236552 0.0782762 -0.11998556 0.05727089 -0.071574 0.1656038 -0.16771784 0.11666333 0.1323877 -0.079869844 -0.18701825 0.11504101 -0.1817521 0.0261763
자신 -0.046956133 0.058644753 -0.017461982 -0.0028504787 0.053789053 -0.04991757 -0.031428132 0.12272952 -0.042994227 0.007011186 -0.052821226 0.017355172 -0.012194993 -0.010586472 0.032338407 -0.18910226
추억 -0.02654 0.14752734 0.10320606 -0.13674423 0.118390016 -0.06993331 0.052937508 -0.10253447 0.110430606 -0.055643033 -0.03753709 0.019501083 0.12145787 -0.062142275 0.097040035 -0.0010378754
캐스팅 0.14768067 -0.08588966 -0.060020894 0.12210039 -0.069406696 0.06302664 -0.08348137 -0.034544785 -0.05413234 0.023347098 0.06630711 -0.013493997 -0.098344855 0.08270114 -0.18142007 0.23215373
첨 -0.0008730185 -0.005099833 -0.040134076 -0.0009678417 -0.04324997 0.015281392 0.023454309 0.13297479 -0.06439519 0.052920826 0.019568672 -0.07808603 -0.1255541 0.07708278 0.015923131 -0.0006214386
멋있 -0.16820012 0.16935065 0.20224366 -0.18672824 0.16845217 -0.21244404 0.22198033 -0.16588345 0.112176195 -0.17605862 -0.16089348 0.16776471 0.14027694 -0.19137931 0.12625009 -0.06537764
류 0.041515946 -0.011751346 0.05174746 0.030455368 -0.060226522 0.12763494 -0.09621668 -0.12977634 0.0007197586 0.008657305 0.12105145 -0.08605244 -0.0049781357 0.08297224 0.0018578571 0.19242422
어색 0.23629773 -0.15461667 -0.10053003 0.2312725 -0.16028701 0.20569812 -0.1877768 0.117276534 -0.14765437 0.22560865 0.21768919 -0.28952202 -0.12831122 0.20905289 -0.18464097 0.2506227
시나리오 0.09900517 -0.045592647 -0.027612675 -0.0061819362 -0.02626308 0.11087181 -0.097498745 -0.016376453 -0.025648829 0.01615293 0.11914554 0.009903827 -0.10981612 0.07437235 -0.16057433 0.19696358
머 0.048149873 -0.06410716 -0.017530102 0.020472134 -0.15027429 0.043225102 -0.00799506 0.031861242 -0.1254673 0.11414275 0.027120316 0.018453928 -0.034531973 0.04365984 -0.04174891 0.045428935
밖에 -0.056311544 0.029069573 0.06047823 -0.017630279 0.06629605 -0.005619779 0.09972792 -0.12978357 0.110634744 -0.056616753 0.023528416 -0.042158026 0.03855992 -0.086762905 0.08283712 -0.084785864
OOO 0.1440194 -0.20015655 -0.26059788 0.14289927 -0.22850887 0.16267917 -0.12028758 0.1637873 -0.19528796 0.23819593 0.12610066 -0.08765982 -0.13460648 0.18237926 -0.17080939 0.1241577
슬프 -0.26183587 0.29599166 0.16400592 -0.2508537 0.23901552 -0.21944006 0.20345324 -0.10090123 0.15279439 -0.22663619 -0.27115098 0.18984675 0.19751783 -0.20117246 0.30344322 -0.1677056
정신 0.06464692 -0.05893033 0.02352648 0.088888034 -0.02441782 0.07529187 -0.11261028 0.06272061 -0.055883445 0.018943517 0.14347471 0.016726186 -0.06924807 0.07643568 -0.06896484 0.09313253
분위기 -0.069324374 0.026073469 0.05572777 -0.084568806 0.08001595 0.0037699745 -0.03200483 -0.0349389 0.0855549 -0.06274176 0.02388648 -0.06922239 0.021029038 -0.018533792 0.04945016 0.010167417
소름 -0.05998346 0.13513613 0.06563632 -0.16170996 0.13449472 -0.14426115 0.10239952 -0.15348172 0.13643874 -0.15767458 -0.18400234 0.13991328 0.08269887 -0.124296114 0.072242685 -0.029999156
멋진 -0.17317873 0.08245345 0.14532878 -0.17768747 0.14842333 -0.12651585 0.13214648 -0.21031502 0.1392366 -0.1640009 -0.16756462 0.078501575 0.14060313 -0.10165812 0.075933106 0.043891944
힘들 0.08610669 -0.047320083 -0.24411896 0.10452199 -0.16388175 0.08355733 -0.020058379 0.23570274 -0.14235978 0.15898809 0.050776966 -0.107211046 -0.121326715 0.09627148 0.06841712 -0.06759501
오늘 -0.023225436 -0.011341744 0.046240862 -0.028376954 0.041219298 -0.09930252 0.035501033 -0.056701634 -0.060856685 0.0071688746 -0.073678724 0.12387364 0.0055564763 -0.08706223 -0.016976729 0.050397646
어이없 0.22795126 -0.1772901 -0.22031324 0.21235344 -0.20463958 0.18182124 -0.17478308 0.0062604053 -0.16278788 0.1639735 0.18554679 -0.10442646 -0.15897128 0.17435832 -0.23081969 0.3518675
봐서 -0.0160668 0.017261289 -0.020659616 -0.03163453 -0.055883225 -0.027965149 0.040848818 -0.14154373 0.03295071 0.021170758 -0.09110725 0.066692285 0.061715957 -0.005327489 -0.014835442 0.058785398
잡 0.059211522 0.015856182 -0.014713542 0.05783375 -0.055283695 0.053613704 -0.03460904 -0.08903518 -0.040179066 0.06768349 0.022349784 -0.019197188 0.047164988 -0.029425202 0.025361314 0.09247845
구성 -0.04571685 0.011952076 0.030960571 -0.0745075 -0.010047389 -0.08024217 0.0723738 -0.08255775 0.05390979 -0.03392975 -0.042914327 -0.04220325 -0.02874269 -0.006874057 -0.020129021 0.022198776
엄마 -0.06381662 0.06771053 0.06819539 -0.046027504 0.06451681 -0.011950212 0.12346583 -0.103911944 0.1607397 -0.095757015 -0.14557576 0.040756844 0.1255976 -0.12903902 0.058118243 0.05348744
함께 -0.00665448 -0.026342789 0.150526 -0.05903919 0.08950673 0.026533702 0.02688559 -0.20547214 0.10263541 -0.06303285 -0.0561908 0.124563135 0.07232203 -0.047020525 -0.008109566 0.20678735
문제 0.06690602 -0.19069868 -0.16721316 0.13123856 -0.13995127 0.10280248 -0.07229776 0.024691932 -0.098425485 0.12257808 0.0783679 0.011071109 -0.09537381 0.02667006 -0.2203776 0.1670152
위해 0.11475739 -0.048902217 -0.12814713 0.099425204 -0.067433506 0.05818113 -0.015076092 0.004329171 0.030544402 0.073224485 0.007774941 0.029980771 -0.012578911 -0.025928842 -0.17131263 0.17278774
졸작 0.3514591 -0.24744262 -0.32505593 0.3362056 -0.3756348 0.36666825 -0.27652866 0.1660988 -0.2921761 0.42210636 0.326386 -0.29744935 -0.33306494 0.293314 -0.31035525 0.33584738
잊 -0.2555191 0.2857815 0.16613732 -0.21943396 0.21650682 -0.2529879 0.17578503 -0.12785478 0.108460486 -0.19594757 -0.29610893 0.06123506 0.19291142 -0.2218968 0.3353335 -0.29605964
이딴 0.30483314 -0.279617 -0.18510136 0.27335355 -0.34227186 0.31598198 -0.32653928 0.12600508 -0.19778927 0.20494255 0.28683075 -0.32142666 -0.17669733 0.31863716 -0.20557173 0.2753286
등 -0.08074763 0.045639817 0.029510844 -0.12728557 0.075398944 -0.054137852 0.11069084 -0.13748057 0.17066695 -0.08103473 -0.10884195 0.14757562 0.03225292 -0.12475694 0.024489982 0.04313769
집 -0.036141086 0.0064816573 0.0570028 -0.03016824 -0.02409701 -0.03170791 0.013584588 -0.023099607 -0.09032859 -0.005177218 0.036244847 0.12646991 -0.023803748 0.038570028 -0.056564696 0.031087462
유쾌 -0.107939936 0.09042939 0.088127464 -0.18719292 0.19800894 -0.1079425 0.21695827 -0.27862716 0.19469737 -0.15609068 -0.20797133 0.16998243 0.15559843 -0.22001772 0.013064659 0.2955281
뻔한 0.1837955 -0.13357158 -0.18144538 0.13708803 -0.16561863 0.11936194 -0.12030736 0.11816162 -0.16829124 0.19732183 0.11908895 -0.19124861 -0.14253104 0.14630724 -0.107305765 0.13571674
킬링 0.051505223 -0.04380857 -0.069497034 0.0033370885 -0.012165062 -0.0013573158 0.0006415183 -0.04865458 0.009980687 0.0048228507 -0.020456953 -0.042502843 0.033346128 -0.01885544 -0.027412657 -0.044125706
스러운 -0.07850832 0.09710751 0.09167647 -0.06045729 0.11028827 -0.0803293 0.049879353 -0.03928631 0.08762249 -0.072223075 -0.05387636 0.018203601 0.13789766 -0.010404383 0.1326674 -0.10453695
결국 0.09453538 -0.026531143 -0.026788948 0.041113578 -0.08819723 0.055035435 0.020753708 -0.0033142758 -0.08499925 0.049127195 0.07910456 0.014623027 -0.07987872 -0.013632255 -0.06242856 0.089585595
낫 0.019003669 -0.05510287 -0.100593835 -0.04016264 0.061089214 0.0121107055 0.05794438 -0.034497473 0.008013854 -0.046781693 -0.033263765 0.0911956 -0.04904931 -0.08848497 -0.21980211 0.07307445
한데 0.0076031997 0.0005298533 -0.17725861 0.017183218 0.036240026 -0.057692204 0.10620907 -0.034167573 0.08586787 0.0055022878 -0.12622145 0.11470617 -0.037973654 -0.046783682 -0.13094461 0.16582526
나요 -0.020407412 0.20388636 0.06441594 -0.11134828 0.011636837 -0.04748757 0.0647295 0.020284252 0.119822666 -0.020590479 -0.050414693 -0.1000183 0.10696213 0.009353642 0.31998643 -0.3625423
뭘 0.037521992 -0.1628517 -0.18199526 0.091235995 -0.13414265 0.07366633 -0.050351255 0.16128792 -0.11731034 0.1290298 0.02164252 -0.10620333 -0.13074468 0.017276138 -0.16101974 0.0064168107
소리 0.085294865 -0.04134129 -0.03707428 0.0034796712 -0.01821099 -0.020666245 0.0049522026 -0.0036762937 -0.07246812 0.046085764 0.036394972 -0.032266334 -0.06854749 0.032868516 -0.12907943 0.02312244
간 0.034439884 0.031008042 0.057568308 0.03132301 0.019388955 0.029696282 -0.03310311 -0.050565895 0.01972509 -0.02211654 0.012550207 0.07295947 0.010757569 -0.016480938 -0.039470654 0.07669607
20 -0.006757674 -0.061323546 0.03661076 -0.0038065002 0.035317108 -0.057091966 0.01091882 -0.09331945 -0.03523198 -0.04832168 -0.06927979 0.19080128 -0.07298001 -0.105335824 -0.11503799 -0.014822564
역사 -0.002457078 -0.03021646 0.05489627 -0.06021375 -0.016911875 -0.112654865 0.054225862 -0.0359041 -0.071337536 0.0065938327 -0.05059864 0.106313586 0.020504402 -0.01360693 -0.058957163 -0.027058974
뭔 0.11598776 -0.09457009 -0.024778137 0.16331607 -0.14133748 0.06700596 -0.07136146 0.09366453 -0.15712494 0.08432585 0.043660317 -0.027071748 -0.038399108 0.13932732 -0.12750499 0.1489356
제발 0.058140174 -0.12890121 -0.118217535 0.052278396 -0.08513274 0.058200635 0.021175034 0.061943505 -0.016921945 0.041268174 0.016321955 0.00034965278 -0.08271707 0.037238695 -0.103634976 -0.00527352
